#️⃣ 0.020432932 0.02541545 0.0306296 -0.047097676 0.038838185 -0.0073072994 0.04775061 0.019902708 -0.0011197397 0.02320811 0.037842378 -0.04646008 0.053399444 0.02619769 -0.01773959 0.004627548 0.020836025 -0.015231449 0.025480375 -0.029457837 0.010718114 -0.021935763 0.021200085 -0.049419086 -0.029286804 -0.037525136 -0.009779527 -0.040491425 -0.048861332 0.013810624 -0.02904208 0.046545766 0.03533946 0.03194718 0.016011668 -0.052960172 -0.020112416 0.033961307 -0.037820406 0.007738168 0.038529087 -0.013169089 -0.04796719 0.027869096 -0.0238534 -0.01293739 0.033720523 -0.027954781 0.04332892 -0.018896822 0.007572277 -0.033966523 -0.030942502 0.018201437 0.007943795 -0.0090186475 -0.012935111 0.013380811 -0.041270673 -0.014078529 0.044460393 0.008719425 -0.016510438 -0.0009113977 0.019807642 0.018284053 0.03681349 0.020935675 0.011270285 -0.0035073906 -0.024580503 0.029986564 0.025957877 0.019397527 -0.0039507477 0.0053325463 0.03329011 -0.045719948 0.05085864 -0.028252974 0.033344157 0.04724442 -0.010131686 -0.023753244 0.013721652 -0.021419367 -0.004016518 -0.034484643 -0.017523846 0.0055671153 -0.047597382 -0.03324562 0.014989721 0.04347655 -0.044625442 -0.016488891 -0.034116425 0.02790002 -0.043598026 -0.0317757
*⃣ -0.03105856 -0.0031244091 0.044424728 0.0034790633 0.04451357 -0.007478873 -0.013294903 -0.03218107 -0.053690463 0.047479726 -0.00340856 -0.01510552 -0.0121846255 -0.012565752 -0.044030555 0.04757139 0.0023445901 -0.00072606024 -0.010460365 0.022740142 -0.024542727 -0.02224796 0.0019481637 0.011805637 0.004795594 -0.024397142 -0.0056408527 -0.02388811 -0.028428737 -0.018750733 0.025091855 0.032977067 -0.009415043 -0.030668497 -0.015195262 0.021377914 0.019773016 -0.0237191 -0.016136296 0.02520737 -0.009164205 0.011801812 -0.0020278518 0.04562918 0.01120987 0.012480662 -0.025807636 -0.048741765 -0.029454928 -0.021493005 -0.021065148 -0.028632 -0.032046363 -0.019622343 0.025722986 0.03862643 0.029102633 0.04978624 -0.020402826 0.001957989 -0.015142199 -0.0025512734 0.0324164 0.012159227 0.002832765 -0.038687587 0.02076508 -0.045258384 -0.004334552 0.0162838 0.03862325 0.0035632437 0.029996881 0.008352212 -0.011857821 -0.0286659 -0.00043179872 -0.03686175 0.031188445 -0.017119648 -0.05117208 0.046867643 -0.03339111 0.026083587 0.037755303 0.005852852 0.028603163 -0.0063697575 -0.022912195 -0.048162505 -0.01115016 -0.017978098 -0.05107404 -0.037454244 0.024158577 0.031190649 -0.027931087 -0.025318677 0.040452585 -0.024475588
0️⃣ 0.038081203 -0.042048324 -0.03824139 0.003517561 -0.008024775 0.023423718 -0.007956525 -0.033304017 -0.028265623 -0.0014021475 0.0031540587 -0.036970675 0.04253981 -0.022969773 -0.01875984 0.04663016 -0.02762935 -0.047883112 0.007070523 0.036472224 0.012845852 0.01889357 0.01703473 -0.03617826 -0.0075392034 0.029634431 0.056910567 0.012383316 -0.03512818 -0.039912548 0.029571611 -0.032423742 -0.02448604 -0.033773143 -0.022376467 -0.045101896 0.00795516 0.046981797 0.019665018 0.028040608 0.0076759756 0.04673083 -0.044320833 -0.011437089 0.005404334 -0.0030643553 0.0379093 -0.046492025 -0.04248906 0.043957062 0.012631438 -0.0056333826 -0.043913003 0.03947825 -0.041454457 -0.043942973 -0.033779215 -0.035182703 -0.004062624 -0.0034688956 0.011479697 0.05401247 -0.039992657 -0.013228814 -0.0027010068 -0.038398877 0.04093461 -0.055007678 -0.013642941 -0.040606536 -0.044303183 0.004069136 -0.016766975 0.044060927 0.018004693 0.040734 -0.029007602 -0.036417186 0.014143342 0.050596356 0.050638206 -0.015391964 -0.025614463 -0.019229978 -0.00015734333 0.0051227612 0.003974809 -0.021313043 0.028099483 -0.009614474 -0.014624305 -0.019413562 -0.040605895 -0.025732568 -0.0040753097 0.00844926 -0.026236063 0.024879055 0.019143693 0.054674618
1⃣️ 0.02445144 -0.048118405 0.0012601266 0.031245977 0.0006232566 0.018939748 -2.616547e-05 -0.0115754055 0.048782177 0.050128974 -0.0035123813 -0.050888207 -0.015395301 0.039967988 -0.025487449 0.03447864 0.03237273 -0.028758856 0.010577503 -0.01620674 -0.043047342 0.02375983 -0.04079652 0.019671045 0.034840617 0.035395656 -0.027497988 0.028781539 -0.0020409995 -0.010371822 0.021967737 -0.05703376 -0.031252105 0.05144928 0.052492663 0.033348385 -0.0073535093 -0.019939194 -0.012246374 -0.0041507264 -0.022600763 -0.006295502 0.0070399703 -0.020292677 -0.0059670475 -0.012438113 0.016218638 0.003663967 0.00035715837 0.049765836 -0.034238525 -0.037591927 0.018122587 0.045353927 0.0038191688 0.03157637 0.00094973826 0.021869361 0.011359766 0.0052941376 0.039795335 0.033671793 0.037707772 0.008869998 0.010480907 0.03706953 0.02639375 -0.010786917 -0.01687914 0.036131963 -0.0039073364 -0.003925854 0.011885703 -0.04663169 -0.023018409 0.04429238 -0.03278993 0.05371819 -0.03374691 0.019720864 0.045541972 -0.004882462 0.004392456 0.016029546 -0.025720803 -0.013717264 0.03133684 -0.04832414 -0.005354135 -0.043607216 -0.041343108 -0.0036177938 0.026591662 0.013479549 -0.038287207 1.9599986e-05 0.042943463 0.020940268 -0.006337311 0.005762305
1️⃣ 0.0043354575 -0.0073095956 -0.0064445166 0.05282177 0.027670927 -0.020360742 -0.038545534 -0.0069318376 0.034032144 -0.061055776 0.03469489 -0.040226176 -0.00978452 -0.0010270225 0.030097028 -0.038069353 0.018308677 -0.035046857 0.039817072 0.0039955983 0.048764028 -0.023797743 0.0047589103 0.02904743 -0.044323035 -0.050343152 0.017603604 0.049027268 -0.052493062 0.018305661 0.018577859 0.008103049 0.026531864 -0.003992578 -0.028333426 -0.029255388 0.039545074 -0.0050990847 -0.0066382806 0.0173131 -0.028615344 0.020273697 -0.040215645 0.052880418 0.030537993 -0.04727868 0.031861957 -0.026377888 0.0006864316 -0.031737734 0.029752826 0.017624836 0.049877796 -0.015325742 0.004681171 0.01967834 0.0038321076 0.01419487 0.026982898 -0.012015812 -0.018914884 -0.022462986 -0.033829596 -0.023950135 -0.04316683 0.023347275 -0.0030904054 0.025760524 -6.818585e-05 -0.026966855 -0.008878023 -0.024584545 -0.013078473 0.042427585 -0.026855161 0.021707477 -0.042650774 0.030875733 0.003786462 0.016918385 -0.035555314 -0.046191774 0.0027466482 -0.03617053 0.041192595 -0.013784117 -0.02120634 -0.036495015 -0.010924986 0.032209452 -0.022295324 0.015370275 -0.02091907 -0.0038147743 -0.0007056484 -0.03140913 0.042534173 0.035886865 0.033339996 -0.018195782
2⃣️ -0.022571191 -0.00011709413 0.007916477 -0.04940538 -0.038614027 -0.037844975 0.020361178 -0.038690872 -0.00469171 -0.018097807 -0.004040612 0.01095557 -0.037828084 -0.009907082 -0.0036466313 0.022280311 -0.026228398 0.02075465 0.029278925 0.034604866 0.025244618 -0.044438086 0.00077074766 0.04337419 0.014906721 0.026062515 -0.025751462 0.031251825 -0.0056905886 -0.016285775 -0.04331861 0.016304517 0.038184635 0.05232701 0.010694867 0.018247185 0.0015717439 0.024875555 -0.021693785 0.039017618 -0.005417137 -0.0027049347 0.008854703 -0.03901979 0.034682624 -0.010267222 -0.03279412 0.019878404 0.024657907 -0.041206345 -0.014574037 0.036778014 0.018471172 -0.006356997 0.011053226 -0.0429943 0.049532264 -0.031789973 -0.038719743 -0.043696586 0.015100775 -0.022751944 -0.005428925 -0.0058326623 0.0272717 -0.024308853 0.033634927 0.005662924 0.023991335 -0.00027577774 -0.034961984 -0.016921604 -0.022273894 0.039474785 0.015596137 -0.004543677 0.024784604 -0.022763263 -0.051912174 -0.024459427 -0.033872355 -0.032876816 0.04306338 0.039905295 -0.011580719 -0.009708349 -0.04154733 -0.03133116 0.039349336 -0.006822537 -0.046223026 0.036226373 0.030750547 0.02047216 0.04184312 -0.025806526 0.0055870395 0.03023103 -0.004408807 -0.029312091
2️⃣ -0.0053907186 -0.043275777 -0.03278216 -0.04865051 -0.007401907 -0.025184026 0.046485875 -0.037565786 0.027809288 0.01760012 -0.0032087152 -0.044452038 0.04560815 0.015187829 0.017213183 -0.028670631 -0.046564747 0.010928967 -0.012320196 -0.03326669 -0.044151664 0.00087709096 0.040770404 -0.049943004 -0.041187786 -0.028749662 -0.020761639 -0.022459421 -0.026283417 0.003707045 0.027823636 -0.0060954657 -0.028422795 0.034371756 -0.0155174425 -0.003842317 -0.014506328 -0.041495267 -0.00573032 0.003943431 -0.021310808 -0.017407823 0.043059126 0.0057971817 0.0067051905 0.022612171 0.042375248 -0.024818905 -0.01804559 -0.048870053 0.009439372 -0.016111732 -0.0018445246 0.034896698 0.00067298225 0.032391295 0.015039186 0.03686186 -0.034835383 -0.029292997 0.021513155 -0.04120042 0.043158818 0.0036887901 0.04898313 0.019745922 -0.011275303 0.028937373 -0.034565303 0.037234165 -0.00769455 0.013875493 -0.055069108 -0.038361445 -0.000410576 0.040409863 0.019128522 0.031303525 -0.03658145 -0.020561747 0.02378401 -0.03685232 0.030609429 -0.041709993 0.02765468 0.018308332 -0.04122652 -0.006812432 0.02386948 -0.04093423 0.0465441 0.007061051 -0.036679856 0.041108355 0.024855062 0.023650756 0.025311476 -0.039481442 -0.00299165 0.04086768
3⃣️ -0.03357526 -0.031076102 0.027151467 -0.028663633 -0.03618991 -0.03678495 -0.023035077 -0.031186065 0.0052662552 -0.017972097 -0.03184123 -0.03815254 0.031564698 -0.041466806 -0.034572206 0.035199117 -0.016501706 0.016771467 -0.036727857 0.04891766 0.02007597 -0.013817642 -0.035918716 0.018633882 0.005219343 -0.0035386325 -0.021167746 -0.019942913 -0.008911883 0.024965096 -0.0028853924 0.045862865 0.039822184 -0.02542008 -0.024751997 -0.026889319 -0.022330895 -0.039158497 0.035559483 -0.022202497 0.0058133355 0.006871427 -0.038541473 -0.014596296 -0.047540423 0.026634315 0.048192516 -0.030776575 -0.013907815 -0.033376243 -0.046782874 0.0051938505 -0.04339048 -0.023339445 0.04746688 -0.02035401 0.006026997 -0.033351514 -0.020037882 0.031185681 0.01066041 -0.027118042 -0.0064895367 -0.04500521 0.017498298 0.04572392 -0.0066697844 -0.035999395 -0.036375094 -0.05209341 0.012786026 0.029946573 0.004997982 0.025091099 0.028715177 0.0052697766 0.044990756 -0.03320867 0.037727933 0.014339641 0.04104746 -0.01533588 0.05477292 -0.03320079 -0.051596444 -0.0035471527 0.05276845 0.04255832 -0.030386154 0.029569462 0.031017037 -0.020262575 0.030722696 -0.024375737 0.029045822 0.010960554 -0.045765594 0.0011827002 -0.035974786 0.01424132
3️⃣ -0.049170382 0.014085191 -0.0015459529 0.02588762 0.0007065046 -0.003382696 0.034895025 0.025236206 0.017512871 -0.029010689 -0.021430327 -0.01264813 0.026943237 -0.01836371 -0.012813287 -0.04246781 -0.030178921 0.03949884 -0.014135725 -0.022804841 -0.0065529402 0.037476957 0.045273967 0.0025557901 -0.0027757133 0.0127206305 0.045330968 -0.023749117 -0.031602327 -0.0013267967 -0.03124525 0.0007224712 0.029781055 -0.040945757 0.027045777 0.036597308 -0.023090813 -0.04947245 0.0044124126 0.031570446 -0.04008725 0.029821845 -0.04549165 -0.000659097 0.026803678 -0.0052406555 -0.007983078 -0.041138638 -0.009700287 -0.039469738 0.041125603 0.04250049 0.023094589 -0.009288395 0.03848804 -0.016712395 -0.019126644 -0.045121036 -0.012001375 0.013221309 0.024045404 0.00013582243 0.029989988 0.025473533 0.050215926 0.032999784 0.0022107833 0.046135493 -0.013183072 0.03376243 -0.02661051 -0.042901516 -0.029370224 0.023287717 -0.010887272 -0.00367791 0.020687683 0.03930817 0.009499311 0.017953228 0.011621349 -0.036235224 0.04138381 0.038332555 -0.04279534 -0.008950179 -0.0008928543 -0.018756632 0.04538384 0.055757876 -0.0236782 0.0054112594 -0.004339951 0.012155375 -0.008929329 -0.006712567 0.014073246 0.01095006 -0.0021355357 -0.02401737
4⃣️ 0.024789209 0.03017912 -0.025113307 0.032496992 -0.009863236 -0.0037426187 -0.047270134 -0.0031540492 0.00842116 -0.013388073 0.017679079 -0.008862904 0.044540085 0.011896217 0.021579972 -0.035701856 0.0043438347 -0.046650525 0.016686192 -0.011181401 -0.03965905 0.0014334254 -0.027416319 0.032302607 0.029965898 -0.027139237 -0.0118357595 -0.0065715746 -0.030270636 -0.009402981 0.008644518 -0.010987599 -0.0115838405 -0.01946631 0.049750026 0.0058798306 0.0362979 0.0052935616 -0.029256988 -0.03437236 0.03801791 -0.031573027 -0.024015272 0.025145318 -0.013245977 -0.022113424 0.015110516 0.051457595 0.030351548 -0.033185344 -0.013796581 0.03965096 0.019624855 -0.022791227 0.019393008 -0.008245268 0.0024453748 0.014587202 -0.0497593 -0.004203155 -0.02387991 0.020402905 0.021346284 0.008511171 -0.035053562 -0.019221827 0.036699228 0.015053339 -0.044798914 -0.04085221 0.023517037 0.009295902 0.033078153 0.024757307 -0.037448 0.03119228 0.0076928185 -0.03700889 -0.0077762874 0.031589314 0.043745168 0.025942832 -0.040269777 -0.0426038 -0.0029819096 -0.016393935 0.012646987 0.016279828 -0.0074074864 -0.038616564 0.046676096 0.021952396 -0.0066030095 -0.018545061 0.029161526 0.027370326 -0.031550873 -0.03946361 0.026203267 -0.018761277
4️⃣ -0.011100346 -0.045476537 -0.015225276 0.010601308 0.026412986 -0.041398916 0.00927251 0.023397306 0.042767026 -0.0028115916 -0.041002132 -0.0072414232 0.031251036 -0.032118052 0.0012693669 -0.010390643 -0.039173488 0.001975521 0.0071696476 -0.006002641 0.012601891 0.0013912579 -0.027959548 -0.02189367 0.0025472601 -0.013432423 -0.012531731 -0.023538698 -0.008754591 0.043512408 -0.0055398643 0.0059705023 0.009039611 8.4954736e-05 -0.028941747 -0.009028461 -0.03485107 0.0143065825 -0.028750973 0.021423513 -0.020723613 -0.010013361 0.035615753 0.012096027 -0.02801258 0.015913904 -0.0035192524 0.010558871 -0.0076853707 0.0033899343 -0.018790344 0.02224127 -0.00552808 -0.013526738 -0.019532599 0.00089577766 0.037633292 -0.036151905 0.0065532234 0.037741784 0.013963088 0.0040994533 0.018177899 -0.04666561 -0.02296797 -0.044916872 -0.020227892 -0.0040863845 -0.020252474 -0.047330186 -0.005338879 -0.027180092 -0.024229264 -0.0413925 -0.05324557 -0.044858992 -0.015052448 0.04221935 -0.044004686 -0.03723512 0.028659623 0.019081319 0.002694712 -0.030357016 -0.022111075 -0.029025115 0.050027348 -0.03739146 -0.0040202453 0.009560838 0.04762966 0.0077703907 0.0145306885 0.037436374 0.03842106 3.6623802e-05 -0.047080837 -0.0058100647 -0.042985253 -0.031759914
5⃣️ 0.02608634 0.02584534 -0.024433978 0.038154 0.045442693 0.044707887 -0.015657255 0.030963853 0.036156584 0.0181368 0.037946876 0.025661549 0.04680739 0.039285325 -0.01634392 0.04918634 0.022543542 0.009450817 -0.0355398 0.033345785 -0.007995825 -0.019113373 0.033017702 -0.044123005 -0.03835851 -0.03636797 -0.03426851 -0.011085775 -0.03306159 0.032173153 0.0044595296 0.013128944 0.011403107 0.008270093 -0.01580798 -0.019633193 -0.025279636 0.035548866 0.009530527 -0.04266669 -0.037927676 0.031252116 -0.014421789 -0.01752974 -0.049355414 0.028664032 -0.010247307 0.04284822 0.045801945 -0.047599588 -0.04189097 -0.024048585 -0.048898067 0.0041532163 -0.00014245242 -0.013026923 0.0040034363 0.042228702 -0.018505147 0.033091348 -0.005358175 -0.006073249 -0.030362936 -0.010544167 -0.0069328155 0.04508949 -0.011326859 -0.000335391 -0.018075615 -0.011149435 -0.013782321 0.017043581 0.0037324762 -0.044510953 -0.03188658 0.03360736 0.034855414 -0.011787573 0.04552511 0.047282837 -0.0179197 -0.023498593 0.028668419 0.023671918 -0.05105424 0.04471082 -0.020272264 -0.009759803 0.050910693 -0.0005514242 0.04343696 0.046116423 -0.013730202 -0.018366672 0.042475212 -0.02341091 -0.05147563 -0.015616102 0.028624587 0.049781784
5️⃣ -0.0015467979 -0.015290008 0.0057052174 -0.02360876 0.036871836 0.039876793 -0.008072507 0.012547235 0.030351792 -0.023707245 0.03822149 0.010544356 0.040721722 -0.023013039 -0.002922839 0.009380544 -0.02284248 0.055291355 -0.044811368 -0.018348869 0.010290997 0.03344757 -0.032357685 0.026406288 0.049570445 0.045697447 -0.012422852 0.05014276 0.038612317 0.008068027 -0.0027767022 0.051070493 -0.01937393 -0.029798936 0.014090633 0.0070934235 0.0042583738 -0.024889374 0.04097773 -0.012194815 0.007591272 -0.016158635 0.002677124 -0.04636378 -0.044717286 0.00845304 -0.04466096 0.04228046 0.02402851 0.037409298 0.03874462 -0.037275236 -0.010145653 -0.013455883 -0.049401887 0.025261603 -0.0049910615 0.035093118 -0.03728508 -0.0077910423 0.023246672 0.025324019 0.04181122 0.01730207 -0.028946484 -0.0009843829 0.013775233 -0.041379653 -0.032202903 -0.048686646 -0.03574805 0.02747992 0.011996456 -0.021092115 0.025936576 -0.031749643 -0.009344188 0.0052155564 0.016840901 -0.0047201524 0.007613053 -0.014655023 -0.025146555 0.020610126 -0.04012059 0.056546904 0.031024035 -0.0003694664 0.037581284 0.049574737 -0.037656922 0.009734534 -0.046535067 0.016148252 -0.02843011 0.017124306 0.03633115 0.048171315 -0.047489922 -0.016607
6⃣️ 0.03608607 0.009394217 0.014616201 -0.011650725 0.014331318 0.006719398 0.03209449 0.012207579 -0.03944654 0.038595363 0.010499967 -0.013308065 0.030092565 -0.025514457 0.032491405 -0.033518985 -0.00798243 -0.046906862 -0.009936617 -0.05108555 0.018503984 -0.00033201755 0.040120047 0.010669593 0.003804908 0.020973751 0.030935917 -0.03800804 0.019240467 -0.024045344 0.04587398 -0.03576281 -0.044627894 0.01991399 0.039716642 -0.04721563 0.022760633 0.032610986 0.019606832 -0.016929684 0.015197077 0.009437826 -0.018535763 -0.02678131 -0.015348338 0.007162731 0.004548873 -0.023019033 -0.02452781 -0.0014366918 -0.01770015 0.030629555 0.020060264 -0.020615527 -0.008705077 -0.0040360643 -0.002702176 -0.014225988 0.030761093 -0.020862428 -0.0028373098 0.031800173 -0.037374027 -0.03629398 0.041261055 0.01568727 -0.03486911 -0.020706668 0.030778613 0.009275837 0.03795643 -0.02513438 -0.053428773 0.048207674 -0.02131381 -0.014844004 0.01629445 -0.0010303826 0.0035942525 -0.015588336 0.017266419 0.02564782 0.030607779 0.008366093 0.04875066 0.015941106 0.044566873 -0.039423957 -0.041284088 0.0060676225 0.020242587 0.05241118 0.03677309 0.018178973 -0.03350429 0.04393684 -0.031866774 0.034110114 -0.026046168 -0.013473026
6️⃣ -0.0301255 -0.039008718 -0.052073967 -0.042935513 0.0038121718 0.026755303 0.012392291 -0.016876036 -0.005277048 -0.0006363224 -0.0048010177 -0.0382834 -0.0039171986 0.034053955 -0.03859664 0.027985938 0.023983322 -0.036717936 0.014866322 0.015254514 -0.013972967 -0.0040761805 -0.015801674 0.020492792 -0.02505974 0.040542856 0.017422741 -0.050665554 0.012463798 0.015025976 0.020888153 -0.0013317055 0.016748454 0.0013458428 0.0005396866 0.014283045 0.040830012 0.029133808 0.0044032084 0.024880217 0.0037070548 -0.035049845 -0.0371844 0.02486737 0.023799298 0.02409443 -0.00798904 -0.008974953 -0.030194795 0.0054323794 0.021158578 -0.007029112 -0.028042883 -0.013545829 0.039603278 -0.011653724 -0.0069675175 -0.023024745 0.044103514 0.005333782 0.038140368 0.04342177 -0.0048069926 -0.02937201 0.019808087 -0.04337298 -0.015906235 -0.0278679 -0.017778609 -0.0006957403 0.02637099 -0.031637024 0.015462604 0.043334942 0.03452884 -0.05078641 -0.04916934 -0.013757373 0.0035221705 0.020393364 0.035986673 -0.020008393 0.048282158 -0.036621675 0.014174081 0.014586676 -0.0056582196 0.042611547 0.026288873 0.003687215 0.031037513 -0.04220716 0.045730498 -0.032870147 -0.027208164 -0.023901995 -0.013456603 0.019637836 -0.03894104 -0.030377975
7⃣️ -0.020558469 0.00623598 0.025265297 -0.016973164 -0.013852658 0.030243881 -0.005559765 -0.04872687 -0.0046751103 -0.018535996 0.025707109 0.010024594 -0.029549446 -0.048273925 0.017174957 0.018465063 -0.012904978 0.0397775 -0.007636761 0.012807322 0.017864674 0.034825124 0.04116912 -0.027777718 0.024820061 0.032386187 -0.027197745 -0.017442679 -0.025942203 0.047627155 0.054676577 -0.007950645 -0.04506942 0.021002231 -0.03930838 -0.017477099 -0.029947015 -0.008756006 0.0011980335 0.033989336 0.04857682 0.0038435122 -0.04714764 -0.014848379 0.00075400394 0.007849203 -0.026207294 0.017661428 0.048569076 0.007372815 -0.045335893 0.05632178 -0.014715766 0.02801955 0.004500815 -0.041107673 -0.00050370774 0.008322441 -0.032706775 0.03356679 0.047137648 -0.018141935 -0.026703235 0.04317343 0.025820704 -0.021795856 -0.039007798 0.02197043 -0.030571736 0.02236292 0.007655159 -0.0330435 -0.020958556 0.049671542 -0.020956827 0.046081714 -0.020637719 -0.020440977 -0.0140795 -0.015648782 0.0008789996 -0.0012980701 0.011560127 -0.0192888 -0.038022585 0.007034721 -0.031552937 0.027501706 -0.019895094 0.03755522 0.04107438 -0.0048002126 0.015065509 -0.012159395 -0.026718084 0.017403767 -0.009993354 0.0026754795 -0.027829848 0.041186456
7️⃣ 0.024126664 0.02880041 0.009338215 0.02509658 0.011284982 0.032380804 0.040937483 -0.023214757 -0.028434204 -0.043914855 -0.011110299 -0.019937927 0.04969514 0.018521296 0.0106217945 -0.0104166875 -0.018197102 -0.010937365 -0.046399325 -0.037625995 -0.029704526 0.046427585 -0.0015588725 -0.031365402 0.046607226 0.01989468 0.015664777 -0.003337405 0.021225452 0.0035957883 0.049950596 -0.04284 0.045541126 -0.018192753 -0.038811237 0.0025752212 0.016732277 0.0388173 -0.045470852 -0.01562972 -0.047303963 0.028628077 -0.033059306 -0.0089673735 0.02014377 -0.013186886 -0.023418168 0.012588522 0.024846615 -0.019399533 -0.009469829 0.012406592 0.0022976024 0.012711717 0.013455202 -0.012581381 0.017875614 0.04343358 0.02431155 -0.03582794 -0.0263126 0.031714547 0.018087273 -0.037239596 0.024658248 0.046793606 0.016318617 -0.006245387 -0.013483701 0.03945965 0.0117614055 0.009359206 -0.0035772563 0.008965099 -0.018056149 -0.022221038 0.036182117 -0.03546338 0.042000435 0.0033974312 -0.016166002 -0.013266574 0.022248706 0.0480134 -0.02560429 0.016062595 -0.02732287 0.045766145 -0.010169348 -0.026833976 0.0067139575 -0.027766012 -0.0011331631 -0.024830045 0.018971736 0.049055714 0.0032827954 0.03340143 -0.0475776 -0.011650231
8️⃣ 0.038140293 -0.046957992 -0.014944313 0.02969979 -0.0018044556 0.01863686 0.020514455 0.049669106 -0.04252878 -0.007977801 -0.039762165 -0.004640507 0.00018420124 -0.04019902 -0.02000133 0.036132656 -0.022650931 0.0009698418 -0.051257975 -0.014757569 0.03233413 -0.02230062 -0.0088420445 -0.013283798 0.011194951 0.019254211 0.035480484 -0.03768444 -0.025014546 0.028168922 -0.049496595 0.047034193 -0.03201645 0.018905902 0.041068386 0.032426074 0.022754554 -0.019743428 0.029004179 -0.03000374 0.02110851 -0.02558722 0.00990553 0.028844578 -0.018989794 -0.01857787 0.03368082 0.012586754 -0.034286868 0.02454383 0.03915013 0.045646843 0.027897822 0.009328667 0.032740824 -0.0073192203 0.038434967 0.02597488 -0.03642439 0.030761471 0.004512796 0.022377865 -0.030533852 -0.03892332 0.038058665 -0.002313198 0.010606267 0.006852935 -0.02337827 -0.023321202 -0.013891106 0.0032171886 0.014653857 0.025419157 -0.046594154 7.330835e-05 -0.036559734 0.030108888 -0.0011336874 -0.00030363744 -0.046416283 0.0049669775 -0.03155541 0.0138247935 -0.02526497 0.04641891 0.02696808 -0.027631963 -0.024223488 -0.03660723 0.024786016 0.017099326 0.055786747 0.03967609 0.03075077 -0.035439294 0.025146063 0.0052292976 0.040727433 -0.044627387
9⃣️ -0.035574235 -0.052453157 0.011862583 -0.014444797 0.017537603 0.053234503 0.040049396 -0.010050244 0.039361503 0.032243688 0.012825087 -0.038558383 0.029623644 -0.036309704 -0.04980052 -0.034371912 0.028663728 -0.036063332 -0.036297046 -0.009517786 -0.022840273 0.008421216 0.04354575 -0.05007931 -0.00912144 -0.01029262 -0.03126609 -0.0026255164 0.011441926 -0.042690277 -0.038641933 0.0030228267 -0.0034164854 0.03624394 -0.0038738705 0.042679973 -0.004845167 0.02677682 -0.030698903 0.011943029 -0.009661543 -0.018847749 0.029602721 0.009501628 0.044177387 -0.028987318 0.015130005 -0.022660067 -0.03799024 0.00092297053 -0.012741928 0.0023480237 0.011840891 -0.013113292 -0.04002444 0.0507421 -0.037003662 0.048874736 0.04529876 0.015965372 0.04334983 -0.022694485 -0.0052694073 -0.00518347 -0.00074470125 0.031532276 0.04094104 0.0047295108 0.016042149 -0.006416947 0.0007943591 0.021603763 -0.0028197942 -0.026666861 0.0011953668 -0.0380885 -0.030995268 -0.04442992 -0.021022314 0.020031508 -0.017765302 0.027805442 -0.046302944 -0.034958273 -0.04234704 -0.0016551648 -0.009044491 0.03516634 -0.010102227 0.047519494 0.0057851337 0.030879732 -0.041529115 0.021885017 0.025474831 -0.034364708 0.0107193785 0.047179397 -0.02230248 0.03738203
9️⃣ -0.025061099 0.020290941 -0.046216283 0.043612804 0.008007466 -0.005442847 0.02512956 0.031112712 0.032205176 0.006100907 0.03641194 -0.049587987 0.036165196 0.035032902 -0.0071520107 -0.04843446 -0.038123082 -0.010197523 -0.00015918279 -0.035082445 -0.032310467 -0.043259546 -0.018723242 -0.025548577 0.018075956 -0.028666506 -0.037606753 0.038893953 -0.039805815 -0.030166103 -0.014605052 -0.020299707 -0.026469737 0.030624894 -0.03228235 -0.009145828 -0.03430874 0.035524905 -0.037708424 0.02704832 -0.0531733 0.043310177 0.020422122 0.0045118243 0.04276489 -0.060469847 -0.0496484 -0.045832068 -0.04692849 0.020609165 -0.05473491 0.03012938 -0.00047650863 -0.019666342 -0.030408397 -0.04200326 0.029956108 0.017539319 -0.04762658 0.022820808 0.0069949008 -0.042805873 0.03431987 -0.016268183 0.035261337 0.013645701 -0.017567398 0.037375912 -0.036078926 -0.04883857 -0.0054573575 -0.021557251 0.022980534 -0.01889744 -0.04194858 0.038057573 0.011993728 0.04717029 0.04683627 0.010006233 0.041984875 0.040453963 -0.03691492 0.0013295852 0.0070066014 0.043142624 -0.019260472 -0.03571187 -0.020897502 0.030930059 -0.024634236 -0.034110833 0.043588158 0.022128625 -0.04877909 -0.040159665 0.022009978 0.045051094 -0.002615097 0.019712342
©️ 0.053827666 -0.03130006 0.012684896 0.034764428 -0.012867704 0.0024255943 -0.020253522 -0.04412936 -0.022516824 0.031707495 -0.032422815 0.040244013 -0.02608086 0.037021812 -0.02599916 0.038470738 0.006237515 -0.055430196 -0.047606736 -0.013343807 -0.004150016 -0.016361644 -0.04097512 -0.02054106 0.014529451 0.029258966 -0.03909585 0.01705173 0.038392056 -0.0066175056 -0.014502319 0.0036322866 -0.0306159 0.031787902 0.05074776 0.042449262 0.010616667 -0.016665291 0.043630764 -0.0321344 0.0042869737 -0.013475826 -0.008877431 0.017651273 -0.015210486 0.025856188 -0.017912202 -0.010393977 0.035802547 0.00045069342 0.043080185 0.023980837 0.03888025 -0.007718149 0.01866558 -0.043357834 0.022821944 -0.01254885 0.020850124 -0.005078416 0.029216334 -0.0067441645 0.0014790369 -0.022147574 -0.027720721 0.012054378 0.02170001 -0.0038847215 0.04131276 0.024938658 0.02359898 0.02067734 0.043099668 -0.008584696 0.01482271 -0.044717845 -0.0313142 0.027747497 0.039149597 0.00696936 0.014383184 -0.004688785 -0.0550485 0.008175666 0.042022098 0.005433278 -0.023384966 -0.04816759 0.023371773 -0.03466298 -0.017544022 0.0056127734 -0.010074279 -0.016304597 -0.0037282447 0.019069668 -0.0017921756 0.018525338 -0.013072287 -0.029049119
®️ -0.04001894 -0.0410368 0.00869875 -0.031814184 -0.048764262 0.039994016 0.030646658 -0.0063345064 -0.04575416 -0.0062844637 -0.050225545 -0.03537135 0.0195948 -0.028691309 0.0036670712 -0.03129539 -0.03579225 -0.0042305007 0.027916346 -0.03223143 -0.012644713 0.027376361 0.044597354 -0.040000252 -0.018995862 0.04112188 -0.044018835 -0.0020695142 0.020544648 -0.00392869 0.0044102487 0.0063621723 -0.019740332 0.04370993 -0.011705066 0.03946181 0.047366064 0.027862 -0.027417865 -0.015874872 -0.0026206446 -0.02288924 0.03318107 -0.031018343 -0.0012630695 0.001322849 0.022258354 0.02694267 0.01998891 -0.029834067 0.03809736 0.027170008 -0.013001826 -0.018393403 -0.02577813 -0.014941157 -0.026231287 -0.03284261 0.029696884 -0.041085508 0.036271762 -0.041213002 -0.023340994 0.04172204 -0.016992385 0.012194281 0.04207789 0.005024698 -0.030002315 -0.037091266 0.025356093 0.04596539 0.028670758 -0.014031497 0.008559631 0.034293793 0.037986636 -0.02315711 -0.010433762 0.021619404 -0.035029486 -0.041073643 0.037627056 -0.0042896327 -0.002098052 -0.040190432 -0.005119601 -0.026196465 -0.048559915 -0.017677236 -0.03306561 -0.040113352 -0.048187092 0.039621495 0.042423263 0.035847735 -0.04455936 0.017938836 -0.029538205 0.047682945
‍ 0.01285595 0.03268733 0.029202912 0.029504541 -0.011850087 0.010921542 -0.035137355 -0.015462631 -0.015771504 0.05642097 0.0073337643 -0.040009055 -0.036917638 -0.012634772 -0.03162928 0.018171823 -0.019904574 0.0013594955 -0.03747105 0.026929697 0.024760744 0.009802341 0.024609726 -0.02369426 0.04234064 -0.024222886 -0.025733301 0.037728224 -0.017252082 -0.012775539 -0.03741857 -0.024051132 -0.016452441 -0.044175997 0.013911362 -0.01299077 -0.025597513 0.031651862 0.031897523 -0.008536279 0.050624296 -0.04241293 0.0069596977 0.047846008 -0.036559206 0.038715627 0.001147675 -0.012333115 0.001139413 -0.041667126 -0.011498246 -0.04755755 0.03257616 0.034188364 -0.0018224985 0.03057272 0.041721404 -0.01926513 0.0020563877 -0.007877948 -0.042276423 0.035609297 -0.0074485787 -0.008525024 0.0050094873 0.034561165 0.04134981 -0.02885463 0.041600164 0.028565258 0.026928963 -0.036315747 0.004912159 0.046549667 0.025468385 -0.019621251 0.0077136154 0.046586268 0.044915248 -0.046376664 -0.009639022 0.024876168 0.032560576 -0.027614893 0.02739996 0.014334689 -0.017045977 0.0058632935 0.025063638 0.015892316 0.038491596 -0.0343202 -0.030289747 0.035799015 -0.01293802 -0.027644305 0.028060064 0.022999473 0.03955627 0.0052229245
‼️ 0.04978948 0.04489134 -0.034632426 0.014997469 -0.05306049 -0.031208318 0.024673233 -0.051531088 0.04450206 0.04377218 -0.0022564062 -0.03558744 0.026345119 -0.006421845 -0.026587043 -0.04394553 -0.008163315 -0.04434508 0.021561254 0.0002928431 -0.005388007 0.043178506 -0.042027593 -0.013533461 -0.02046786 -0.04681464 -0.009761333 -0.041974243 0.031028347 0.04974483 -0.03337149 0.00032110265 0.0076295864 -0.038087115 0.03380694 -0.007200644 0.046078086 0.048345417 0.03152593 0.040008172 0.009055029 -0.04360715 0.048820075 0.00614887 0.026009154 -0.037800092 -0.035661343 -0.016162489 0.01264451 0.042748492 -0.0057018925 0.041927822 0.003687097 -0.043240547 0.047712643 -0.0074339705 -0.020524757 0.033236995 -0.0073729116 -0.03203369 0.04565073 0.033201274 0.034573987 0.00079465954 -0.02714819 -0.030193526 0.021600742 0.01923907 -0.05012414 -0.027205706 0.022349568 0.01742479 -0.049214587 -0.03699424 -0.029523017 0.030968001 -0.004831243 -0.0378523 0.038631916 0.019309474 0.021085031 0.0046317223 -0.007158795 0.009014043 -0.05321603 -0.011386413 0.010131177 -0.041606285 -0.045198563 0.032121714 -0.01646013 0.0147945285 0.043387566 -0.021800864 -0.009908614 0.044353645 -0.048246052 -0.04587082 -0.03355505 0.05014558
⁉️ -0.020318586 -0.021199135 -0.0038512652 -0.021534748 0.011760541 -0.0023595248 0.018425716 0.041446593 -0.022384701 0.030921359 0.05171312 -0.04071638 -0.020870557 0.03953289 -0.000853906 0.018498864 0.0027985042 0.00839649 0.038710807 0.042734616 -0.009857458 -0.007954279 0.043559127 0.040517375 0.008408625 0.0019961605 -0.03818518 0.016181955 -0.03816668 -0.034090456 -0.0027244776 0.011359255 0.042259544 0.035023484 0.018619012 0.050396256 -0.0573447 0.009567764 -0.010277683 0.02833432 -0.01779704 0.037102617 0.022090623 -0.0032071448 0.05472294 0.0009752168 0.016858036 0.03222144 0.025493925 -0.025319185 0.008714602 -0.019621234 0.04055282 0.027954182 -0.011353021 -0.038357344 -0.025087958 0.011221713 0.036847934 -0.0035525886 0.052637335 0.04534158 0.008200299 -0.018006489 -0.044069767 -0.055391114 -0.010089497 -0.03621524 0.02483715 -0.0003808036 -0.002391275 0.0004969125 -0.031995367 -0.001925869 -0.013909374 0.04263112 -0.01681986 -0.022213297 0.050267834 -0.049566083 0.04144614 -0.021331329 0.049993675 -0.024584867 -0.02169614 -0.029822841 0.013047895 -0.05499112 -0.011741813 -0.04589514 -0.0037611986 0.03639509 0.019434918 0.0023900382 -0.054252565 0.0041701947 -0.026954174 0.023810547 -0.042737305 0.006356827
™️ 0.02065927 -0.04389199 -0.044252753 -0.009937887 0.03720524 -0.04779636 0.025656693 0.0072305813 -0.001250718 -0.03727381 -0.023411427 -0.014343193 0.037008245 0.024996595 -0.025717556 0.034816183 0.028090375 0.012223638 0.0045916955 -0.042739272 -0.008559809 0.039138142 0.015172442 0.007149474 0.028344488 -0.045446437 0.04543455 0.04305776 0.006719176 0.005908487 0.029481297 -0.015304282 -0.016438924 -0.01015746 0.043118816 0.020908564 -0.025227958 -0.056568924 0.0024679124 -0.0041565597 -0.02979246 0.04751706 0.01239479 0.026676534 0.02191587 0.044492036 0.055300683 -0.0060516535 0.012247591 -0.03931784 0.014459411 0.010719424 0.0023416176 -0.035310917 0.033343334 0.052095298 -0.0008932002 -0.017945789 0.0407995 0.055626474 0.030465322 0.011843359 -0.009080741 0.043532945 -0.04589416 -0.03941348 -0.03743674 0.027470693 0.038605217 -0.01616145 0.04431246 -0.037999894 -0.025001658 0.024068622 0.01927663 -0.051791895 -0.012249108 -0.032216344 -0.03134404 0.04648285 0.011206629 0.015485283 -0.0059010326 -0.015554041 -0.032842644 0.0026271904 -0.029401798 0.0016636221 0.008542384 0.024687948 -0.002328967 -0.036443684 -0.030471195 2.189957e-05 -0.04341577 -0.029313868 0.040201027 0.006377095 0.0439636 0.049100958
ℹ️ -0.0009871831 0.010804394 0.024273856 0.042746134 -0.0074308356 0.010836196 0.0046594837 0.023046931 -0.016992263 -0.021633308 0.0128427185 0.019482601 -0.045758545 -0.007016984 0.047721844 0.034189586 0.0038987235 -0.012069082 -0.007784139 0.053116124 -0.020640822 0.017961543 0.015915042 0.04977138 0.02675177 -0.05362447 -0.019779116 0.041359626 0.029984212 -0.021943673 0.015682075 -0.06793957 -0.027307112 0.005351935 -0.0028682647 -0.0022232751 -0.045096066 0.05862228 0.018318491 -0.0035863386 0.0040532085 0.041414395 0.018397007 -0.02020669 0.018288603 -0.04492037 -0.00036038106 -0.029770998 -0.021545257 -0.04807353 0.028138977 -0.011953182 -0.014071795 -0.046629813 0.0054604 -0.0014786808 0.023006167 0.025553653 0.00067044416 0.027585275 0.049329747 -0.04461111 0.0069331415 0.018457813 -0.011326501 -0.010794772 -0.05370406 0.053254608 0.023890017 0.0015755511 0.0113214245 0.020424811 0.0032530501 -0.04107797 0.030139713 0.017079236 0.04838931 -0.013692177 -0.04653443 -0.014943824 -0.019264376 0.004098298 -0.04687383 -0.029792208 -0.04745342 -0.03518391 -0.016331337 -0.029384568 -0.015110519 0.010215364 0.0050137076 -0.031360477 -0.017902883 0.043751683 -0.009261578 -0.006520931 -0.048955303 0.032278948 -0.05002759 -0.02949121
↔️ -0.017013343 0.039971143 0.0067925495 0.04342458 0.011723195 -0.024733236 -0.0200565 0.027563434 -0.010569837 0.01926888 -0.011845061 0.029377341 0.03914414 0.04512963 0.038573433 0.000350536 -0.008707409 -0.021242706 0.04029983 0.024213975 -0.024618903 -0.027020454 0.04462181 -0.020127803 0.006005159 -0.011283993 0.045635276 0.04419225 0.04729556 0.031089542 -0.020157842 0.040605403 0.041719675 0.012203103 0.0071599637 -0.04750417 0.04339037 -0.03896985 -0.010921282 0.037553377 -0.023540562 -0.016845599 -0.004415057 -0.035671104 -0.0076035694 -0.009683469 0.016849663 -0.0120456 -0.043772962 0.015961088 -0.017883437 -0.04417103 0.006030741 -0.01946981 0.01622365 -0.042726442 -0.04845223 -0.0020508424 0.01962896 0.0027084018 -0.0063570547 -0.030157916 -0.024616897 0.033078134 0.0124245 -0.037350796 -0.016699508 -0.0044024824 -0.013622657 -0.025480852 -0.033921394 0.016073138 -0.031772494 -0.014947857 -0.0051593813 0.03624309 0.032275658 0.00071039237 -0.038153198 0.018569928 -0.025489394 0.042364966 0.02168436 -0.017569313 -0.0040322444 -0.03382967 0.0363421 0.043534745 0.0056613 -0.016687635 -0.031798568 0.043795545 -0.016573243 -0.04592439 -0.047526255 -0.04534317 -0.03901465 0.05102822 -0.00026102108 -0.00075264525
↕️ -0.018552708 0.01621417 -0.027893638 0.009398057 -0.04879235 -0.052738875 -0.028448824 -0.0022588037 0.038141474 0.031740446 -0.023272231 0.025322262 -0.040951643 0.0456055 0.021989277 0.048790302 0.015273893 -0.058512732 -0.034526046 0.028438386 0.024292018 -0.031428747 -0.00956335 -0.0061518215 0.035436403 0.02587443 0.025485046 0.002733897 0.03552603 -0.023865474 -0.03953039 0.018130466 -0.03816509 0.0188512 0.03900661 -0.026756316 0.006950833 -0.030937212 0.017308021 -0.050793324 -0.030490635 0.025304763 0.013470669 0.039749835 -0.030593032 0.011794048 0.048857488 0.0042174333 -0.017129289 -0.019708946 -0.042992428 -0.030416323 0.03887676 0.05178483 -0.01556866 -0.040721282 0.010723168 -0.040854163 -0.015138931 -0.019773435 -0.05046717 -0.0110315895 -0.030493198 -0.0019671817 -0.026938006 0.027941396 0.0044731717 -0.0021661425 0.0048548644 0.037413396 0.02385275 -0.00067009666 0.040404953 -0.030223364 -0.008449185 -0.01257732 -0.016072432 0.029534344 0.035125148 0.0007718118 0.02141643 0.05381124 -0.003468621 0.040391088 0.047167797 0.042812653 0.03959198 0.021894358 0.025165465 0.03653075 0.024110539 -0.05453584 -0.038716324 -0.051773865 -0.03782857 -0.016823148 -0.05177184 0.043002337 -0.021398434 -0.050764635
↖️ -0.042588092 -0.039988764 0.022472389 -0.016847093 -0.021264862 -0.023638584 0.017558433 0.01998456 -0.0059250398 -0.04179778 -0.031214014 -0.034126807 -0.03556282 0.039420567 0.0437449 0.009480086 0.032656502 -0.008825324 0.023712263 -0.033630367 -0.0125421155 -0.021265194 0.025913185 0.036396414 -0.0088251205 0.012491784 -0.0022173594 0.030981204 -0.021263879 0.031492494 0.042704687 -0.03317013 0.033935647 -0.0014174765 0.011434615 0.021348964 0.041112304 -0.0056932843 -0.015623104 -0.020311665 -0.0015264188 -0.00611734 0.00035171356 0.0074035386 -0.03631964 0.023758896 0.026620155 0.048702314 -0.038287155 0.018814271 -0.038193434 0.04226785 0.023012666 -0.00974263 -0.04736305 0.048510715 -0.04095346 -0.03714935 0.021149436 -0.022171052 -0.040129352 -0.016083319 0.0034662758 -0.01836241 0.021197006 -0.0011732315 -0.010420168 0.036936022 0.0287371 0.02043502 0.043280154 -0.037443142 0.030656744 -0.011432351 -0.019074455 0.019529782 -0.019185647 -0.02158194 -0.041940514 0.053553917 0.01584134 -0.036274 0.009893425 -0.030221356 -0.02767857 0.005329317 0.029074172 0.030118883 0.0014848366 -0.010213802 0.035370484 -0.026875164 -0.00206223 -0.046656728 -0.00081847294 0.040678453 0.043047566 -0.031132618 0.016191628 -0.053859055
↗️ -0.026420806 -0.041259483 -0.045102414 -0.0034843625 -0.045687865 0.026588418 -0.0009810795 -0.04073389 0.018328484 0.041412614 0.040615868 -0.0381005 -0.021142306 -0.0019835792 0.029955566 -0.008530615 0.05056454 -0.026705807 0.038646296 -0.028694967 -0.033959497 -0.017429432 -0.010229873 0.04381309 -0.010688569 0.051542148 0.020836644 0.03294098 0.05526564 -0.039459333 0.035105802 0.044524327 -0.0025491305 0.04811372 0.026083795 -0.03733556 0.03952053 -0.0328958 0.04823776 -0.034363907 0.029814214 0.012975035 -0.011859213 0.020819355 0.0025530995 0.00031195933 -0.032077517 -0.019269098 -0.019588396 0.049945615 0.019523894 0.033715915 -0.035673186 0.032837883 -0.02602562 -0.007667061 0.008558682 -0.0054084584 0.049000256 0.0328045 0.027115665 -0.03514787 0.003616889 0.035423268 0.04952562 -0.018552948 0.022003248 0.04376602 0.002344411 0.03572581 0.034135137 0.021450173 0.0018962999 -0.017757194 -0.042740174 0.037936628 -0.0017250584 -0.018132828 0.021495914 0.045198973 0.0013653731 0.0083094 -0.04579621 0.01172484 0.0013377311 0.0394122 0.026425252 -0.029815603 0.040018335 -0.01925928 0.021993255 -0.00604633 0.02036669 -0.015321702 -0.0018500999 0.03201784 0.03962781 0.0096907485 -0.025681205 -0.016917739
↘️ 0.015763609 -0.021605382 -0.039555375 -0.039326068 -0.014318711 0.040175732 -0.025824198 -0.010405398 -0.03488926 -0.04490941 -0.048860814 0.018601637 -0.032602128 -0.008903105 -0.032372955 0.008914577 -0.030498197 0.047128536 -0.01895874 -0.016653609 -0.014766543 0.020647768 -0.023662768 0.02707405 0.00929978 -0.031037567 -0.046478145 -0.0357668 0.03541255 0.02009597 0.044763863 -0.0271393 0.026614409 0.037711605 0.043663897 -0.019765092 -0.0011489369 -0.010585492 0.003718734 0.020431684 0.017725652 -0.037379418 -0.05217709 -0.0037253236 0.02528861 0.012812114 -0.041257456 -0.01305672 0.028460026 -0.02450875 0.02039045 0.021143025 0.0012419426 0.0063263886 0.033527482 -0.00039604452 0.02830395 -0.028132236 -0.02226385 0.00887237 -0.038589213 -0.03843598 -0.0351955 0.02602737 0.0022663283 0.010071384 -0.039279006 -0.008134728 0.043229956 0.023531286 0.0025976447 0.036387563 -0.04094175 -0.048266873 -0.00059190753 0.04359167 -0.028137067 -0.019321036 -0.043823574 -0.034433562 -0.020462481 -0.02419587 0.016962513 0.042358793 -0.012526206 0.04405585 -0.024693167 0.046939082 -0.009338588 -0.032686196 -0.013902304 -0.017084602 -0.041206334 -0.028177548 -0.012628356 0.014436373 0.037262708 0.032099664 -0.006537812 -0.034678064
↙️ -0.011705526 -0.018838441 -0.043624714 0.03108068 0.015740782 0.008142583 0.008373009 0.027275473 0.015075132 -0.042089533 -0.052065857 -0.019024469 -0.024646984 0.018937608 -0.046376664 -0.0040530516 -0.029910913 0.017879818 0.030109566 -0.018749774 -0.02420858 -0.031209812 -0.041943673 0.023865113 -0.009217895 -0.002045629 -0.028903358 -0.03623027 -0.015710779 0.025099073 -0.049612205 0.04476152 0.015789885 0.024717605 -0.035061985 0.021977732 0.008612492 0.040322702 0.017459622 -0.025711767 -0.043443367 -0.00992877 0.0346986 -0.01527414 0.016444856 0.01959475 0.039995257 0.020127889 -0.02683606 0.012647692 0.011985266 -0.04282072 0.03196716 -0.017073745 -0.033170976 -0.04160748 0.021090476 -0.05361597 -0.011777041 0.040016327 -0.045618284 -0.0026352208 -0.035385445 0.03618849 0.04629964 0.050910786 0.03290378 0.025484936 0.032405715 -0.02687853 0.026512481 0.05342039 -0.023511685 0.022308236 -0.006242865 0.017675104 0.01613596 0.04945622 -0.0074285823 -0.030345043 -0.04516182 -0.029307863 -0.023688745 -0.015771333 -0.018401334 -0.03878076 -0.054389317 -0.0025822963 -0.038733616 0.010652955 0.039160803 -0.011618538 0.032088324 -0.020400684 0.004893612 -0.039606906 -0.0152051635 0.03756466 0.0033319304 -0.014837667
↩️ -0.017772896 0.028770512 0.011162929 0.011003478 -0.038950387 -0.005729922 0.005887724 -0.015711132 -0.035613276 0.025210565 -0.028671961 0.0260567 0.025490979 -0.012674631 -0.021926602 0.0453569 0.033756517 -0.0358615 0.002323332 -0.0098917205 -0.047487076 0.02182267 0.04102074 0.048876707 0.0067185243 -0.038284615 0.031704433 -0.039519727 0.043514498 0.047074664 0.03136008 -0.00839207 0.03295121 0.010273958 -0.024611972 0.039632637 -0.036106437 0.040198945 -0.0031329717 -0.0125431875 -0.00922694 0.008867231 0.005667015 0.0017860314 -0.012159193 0.019049698 0.016183538 -0.0130556645 -0.03418429 0.04910063 0.01138407 -0.029421303 0.020122219 0.045526326 0.0077845277 0.010630554 0.028598247 0.055413783 -0.048447102 -0.021604652 -0.030863745 0.012423813 0.02323006 -0.037836876 0.003522677 0.039413776 0.023831118 -0.042538926 -0.001455565 -0.046713315 0.01933603 -0.00815419 -0.009962603 0.03995456 -0.021194633 0.0011106565 0.05423378 0.035652343 0.048768546 -0.049205694 -0.012290072 -0.040042438 0.037613478 -0.02045738 0.0016716344 0.04352792 -0.01768514 -0.017710855 0.037428785 -0.018600864 0.021486863 0.04071539 0.027357982 -0.03255798 0.020418094 -0.03585132 0.03563978 -0.022911666 -0.031761944 -0.04470422
↪️ -0.025002636 -0.017026216 0.0022264877 0.021382257 0.039780207 0.021503193 -0.020993207 -0.016729059 -0.00042968517 -0.044421054 0.014266982 0.040172137 0.042224523 0.009123064 0.038933557 -0.02687755 0.021293115 0.04266921 -0.010351746 0.011074427 0.0029512807 0.036469936 -0.03937565 0.02831278 -0.03648539 0.02886383 0.02300044 0.01502996 0.015710307 0.03778689 0.037095003 0.03356621 -0.04003021 0.0032600232 0.012633966 -0.027411737 0.0027467406 -0.05692671 0.021508787 0.020362785 -0.032829434 -0.026499474 0.011008199 -0.015275856 0.050879084 0.02182865 -0.0045914506 0.044822045 0.00061604305 -0.033873618 -0.032891452 -0.038853757 -0.037186287 0.022069087 -0.013701315 -0.00023929212 -0.009770094 -0.037280563 0.034694564 -0.0282085 -0.049517855 0.05216784 0.019711696 -0.03634701 -0.0025624349 0.03724302 0.0070560914 0.05714662 0.021183101 0.012469329 0.040876836 -0.045828592 -0.027236292 0.01319171 0.027125813 0.0013969312 0.023284728 0.01683061 0.0032217386 0.036588382 0.057358053 0.038328353 0.00966469 -0.04090738 0.03962326 -0.028630039 0.035595752 0.045469884 -0.030123651 -0.014397792 0.03942632 -0.042267945 -0.03146337 -0.03327322 0.013964006 -0.026315968 -0.023184387 -0.014025365 0.022168193 -0.044145983
⌚ -0.013401571 0.046947226 0.029373493 -0.037928168 0.00774447 -0.03625838 -0.056797333 -0.027995175 -0.025169764 -0.025325973 0.0075777853 -0.043619603 0.0077916794 0.004059136 0.048296124 -0.040170856 0.03997524 0.010017378 0.021297706 0.0457085 0.026783343 -0.042788073 0.008602556 0.007873764 -0.014791282 0.020473832 -0.008137478 -0.019598417 0.03204078 -0.040087696 -0.04380525 0.018221151 -0.016452845 0.011202692 0.028383192 0.0050350837 -0.012162805 -0.007840153 0.033583265 -0.042300735 0.016550131 -0.03890482 0.025054146 -0.023825355 0.033018194 0.02592697 0.009253266 0.014206953 -0.0057648243 -0.002311617 -0.028562246 0.01586179 0.0009929556 0.033788014 -0.010702369 -0.03587738 0.04543274 -0.034390662 0.027097167 -0.050024934 -0.034508903 0.046599012 0.03469233 0.011796355 -0.006974875 -0.0029916854 -0.011441969 0.03279268 -0.015606342 0.006589298 -0.0051450427 0.018285494 0.056128692 0.032874543 -0.0043325694 -0.025529424 0.024031403 -0.05429688 -0.02312681 0.03480258 -0.012603447 0.011064536 0.039724253 0.009407233 0.03339102 -0.017532326 -0.0038973605 0.0031712335 0.001354216 0.026636573 -0.039145667 -0.018463207 -0.037496075 -0.026081799 -0.016915753 -0.020985305 -0.035937164 -0.023206377 0.015231576 0.05423986
⌚️ -0.0495479 -0.02389347 0.02001844 0.05192938 0.00045558138 -0.035978407 -0.011424242 -0.027711429 -0.012956214 0.012406553 0.015318891 -0.012712103 -0.042519424 -0.033907708 0.026257414 0.041766975 -0.025769526 0.0026638182 -0.0032202543 0.015339539 -0.035478644 0.02963103 -0.00843498 0.00612032 -0.050904676 -0.012969719 -0.01751725 0.038528048 0.006545796 -0.02120228 -0.03809254 0.018913826 0.015225504 -0.019727884 0.024415577 0.00430544 -0.034676336 0.00037696143 -0.03770848 -0.030806698 0.014296348 -0.05802894 -0.015761876 0.01832101 0.044012442 0.031940497 0.008925169 0.04377437 0.0069417674 0.028835379 0.021153325 0.030833494 0.046519294 0.020105401 0.020733336 0.00827521 0.032961853 -0.04645355 -0.021886524 -0.04121429 -0.04766254 -0.02890734 -0.024118682 -0.0059855687 0.042353496 -0.022602234 0.05210601 -0.04078256 -0.041459784 -0.016338503 -0.031599358 0.013448972 -0.0234741 -0.014115443 0.00053510297 0.035428107 0.008342865 0.015793575 -0.038743082 -0.02501744 -0.04630356 0.03134866 -0.03550357 0.029775854 -0.030288808 0.047839824 -0.033926863 -0.013538332 -0.005207137 -0.0011918092 -0.011078001 0.03973969 -0.0063987654 0.030883064 -0.024171088 0.0026471799 -0.02653281 0.0045860843 0.015245235 -0.02768187
⌛ 0.021710318 0.03533861 0.036638044 -0.018828755 0.052294 0.010655542 0.032397687 0.04308417 -0.0292156 -0.0029867631 0.01310011 -0.017060485 -0.026072014 0.015105825 0.009170164 0.012976002 0.009135171 -0.013752184 -0.0040976703 0.030761378 0.038892265 0.023016013 0.013199347 0.013007488 0.04456778 0.010070677 -0.041582752 0.006694676 -0.021138966 0.009491786 -0.03174467 -0.0086143175 0.046047207 0.004920366 -0.032558445 -0.0045387843 0.038909726 -0.0028350158 -0.02188709 -0.0185048 -0.0051258425 -0.0027208566 0.028108148 0.042469945 0.030979494 0.032282967 0.0054581356 -0.0076610544 0.042204387 0.00978465 0.010380164 -0.011147687 -0.03582042 -0.043502778 -0.041272294 0.035528753 -0.02577659 0.038346875 -0.03755382 0.022872016 -0.036235016 -0.04402303 -0.023315653 0.031477954 0.04663342 0.02517171 0.032670323 0.008067613 -0.03213512 -0.0021042284 0.03779824 0.043763883 0.04135132 -0.025512636 0.005251708 0.039336346 0.015481144 -0.04317158 0.040803645 -0.028803587 0.02289844 0.039694414 -0.0001403302 0.04699404 0.048936002 0.009834531 0.04435003 -0.04292947 -0.00618712 -0.027213436 0.047938045 0.0006686701 -0.040359076 0.012053574 0.014176505 -0.004687573 -0.04052958 -0.021368183 0.0039357576 0.014496205
⌛️ -0.01944686 -0.014868013 -0.03250527 -0.042567935 0.015195155 -0.028637657 0.010082059 0.022729559 -0.010425482 -0.044238295 0.0061779073 0.024739755 -0.013665977 0.028525481 -0.014547643 0.0103485165 0.005960462 0.016534483 -0.01672287 -0.05007615 -0.03443669 -0.0126569355 0.023792354 -0.028327858 -0.030502833 0.007187512 -0.04232902 -0.011303274 0.013377668 0.0245706 0.029011065 -0.029724693 -0.032843363 -0.05340511 -0.0293304 0.0038057598 0.04132428 -0.03967869 -0.046514485 0.0076092076 -0.03633071 0.0070351227 -0.0040516667 -0.048703786 -0.03542841 -0.042682085 -0.0128998365 -0.04465576 -0.038966473 -0.010887532 0.012041171 0.046771254 -0.024210284 -0.035138898 -0.040246446 -0.0021257312 0.016546465 -0.042070772 -0.011303297 -0.038100734 0.048107874 0.0023020837 -0.014574949 -0.034085143 0.026934585 0.026430193 0.01456338 -0.0023872543 0.028811546 0.02038928 0.000106808 -0.020419179 -0.027933653 -0.0341062 -0.0072595268 -0.029263731 0.030252406 -0.01156427 -0.03884031 0.011625218 -0.046282053 -0.03260373 -0.03863888 0.041287467 -0.03997698 -0.0377469 0.022881707 -0.032036822 -0.020031083 0.01691639 -0.008580379 -0.011621122 0.034187704 -0.022311129 0.012187038 0.02580309 -0.0064675184 5.7768528e-05 0.0085054 0.043658324
⌨ 0.027967721 -0.0390757 -0.016526151 -0.018566657 0.031413067 -0.00040831463 0.024940982 0.012777016 -0.025429348 0.03154191 -0.030095428 -0.026436089 -0.03511379 0.026669074 0.0400736 0.019264685 -0.0007158618 -0.029535076 -0.039085925 -0.00042187105 -0.028956898 0.042428184 -0.053730465 -0.008052979 -0.04949146 -0.056205563 0.022024227 0.03956909 -0.032029882 -0.037786152 -0.0386219 -0.040129546 0.01456794 0.012277026 -0.015607942 0.02613372 0.0043551503 -0.02879634 0.03356718 0.026384743 0.0017641656 -0.038590346 -0.0353854 -0.02498243 0.041823868 -0.004438936 -0.032105204 0.03945282 -0.051363487 -0.043343317 -0.008198627 -0.020009518 0.03307223 0.016146142 -0.04204017 -0.020275213 -0.04882785 -0.052059483 0.01876253 0.014595203 -0.04283386 0.036020506 0.038740076 0.016723966 -0.004331183 0.029972276 -0.02185616 -0.016208004 -0.0057169455 -0.015945245 -0.013588426 0.0154618565 -0.047122646 -0.042727683 -0.0035774382 -0.04573443 0.015175196 0.0024633305 0.0021714696 -0.016028536 -0.030555679 -0.04232598 -0.0019419368 -0.017463895 0.045376856 0.012833965 0.045730047 -0.017785544 -0.023524422 -0.046787642 0.025090579 -0.015250917 0.01350481 0.0047822525 0.007119071 -0.0149097135 -0.03386929 0.020298982 0.038624037 -0.024022501
⏏ -0.036722753 0.011015892 -0.03499596 0.023767948 -0.00095405494 -0.03342618 -0.03725971 -0.00054189214 -0.031865817 0.050857447 1.1312605e-05 0.034810115 0.013240369 -0.012133431 0.038663357 -0.033210736 0.03077818 0.004218026 -0.048307184 -0.0017816168 0.028704233 0.024312636 0.035717405 0.018488077 0.049788654 -0.022361346 -0.020843092 -0.019657707 -0.0041706506 -0.019312704 0.039760564 -0.0010097486 0.005908464 0.011333291 0.00682833 -0.00996029 0.03377431 -0.043509416 -0.010987986 0.020429108 0.047134027 -0.0037153435 0.020056004 0.04804468 -0.027120184 0.015308158 0.04219662 0.0418118 0.03901609 0.022771318 -0.040822968 -0.029860266 -0.0007680678 0.015521204 0.010637375 -0.023735888 0.0034606655 0.006904042 0.004922971 0.01877226 -0.009436196 -0.04434431 -0.018280026 0.0035191965 0.04318602 0.024767105 -0.02819333 -0.016459007 0.0535136 0.026493182 -0.05275262 0.04213447 -0.034917746 0.015226141 -0.04685988 0.0150868 0.04755872 0.009715853 0.0043963683 0.013311481 0.034665484 -0.01795538 0.018669408 -0.008374464 0.031380374 0.03931461 0.01695413 0.00742809 -0.010124873 0.016430601 0.0403795 0.006626057 0.01200569 0.014476758 -0.013138719 -0.037296053 0.045682836 -0.039820973 0.023093471 -0.030819079
⏩ -0.015904054 0.031573854 0.042470213 0.029245539 0.04455 0.03390746 -0.019167423 0.02000083 -0.015298556 -0.0046257633 -0.026413497 0.049509723 -0.050563227 -0.022985492 -0.010958285 -0.00029641183 -0.05550251 -0.017867595 -0.021247786 0.024427567 0.024262268 -0.035820574 -0.009693774 -0.028732462 -0.04797429 0.0028743835 -0.0023896713 0.023372425 -0.020319963 0.015625605 -0.02340564 -0.00016950497 -0.011866886 0.031631444 -0.028940659 -0.043958146 -0.008992966 0.027701871 0.0065417304 -0.02641304 0.019734263 0.009752375 0.032038055 -0.05358124 0.003973064 0.058421362 0.036585446 -0.014717306 0.042444967 0.028022606 0.04802792 0.03046927 0.011506977 0.043858487 0.0038278566 -0.009822928 0.029583827 0.041627847 -0.027915707 -0.009716434 0.016612878 0.01745707 0.018020375 -0.0057186177 0.021988094 0.031801153 0.008697017 0.016606556 0.0019782053 -0.0278771 0.018885797 0.04476141 -0.0048461836 -0.059996564 -0.030094841 0.001253287 0.03232584 -0.040025096 0.029074606 -0.011592634 0.033285916 -0.03883332 0.027564108 -0.04976222 -0.002318305 0.02107777 0.0126768155 0.01831983 0.020244936 -0.0021842353 -0.02074888 0.009996873 0.05796707 0.024664424 -0.021896727 0.01538429 -0.035577655 0.0018147811 -0.033122726 0.018460851
⏪ -0.01367415 0.041283954 -0.055420082 0.015750743 0.053590707 -0.025138134 -0.014989009 0.025435615 0.009131796 -0.007960527 -0.013045584 0.022254614 -0.025438782 0.010231519 0.004566715 -0.026729012 -0.052603032 -0.04589702 0.01899669 -0.024189956 0.032037564 0.019774439 0.001027608 -0.039712593 0.036342647 -0.029819775 0.026004966 -0.026992818 -0.011219507 -0.026680378 0.04822252 0.03141715 0.007209244 0.0075253057 0.00011314538 0.039161153 -0.0029321397 -0.024445014 0.013820295 -0.047188282 -0.022349432 0.033120427 0.009638793 -0.026468288 -0.006576291 0.015428878 -0.003209565 0.03429407 0.026744267 0.027871817 -0.019977823 0.004495124 0.04272376 -0.039237462 -0.019961856 -0.026631104 0.0016325673 0.048846252 -0.003122349 0.02204631 -0.0017118185 -0.028216818 -0.03215535 0.04430147 -0.008381539 0.0030964436 0.019210098 0.04711004 0.04225026 0.005225862 0.029615626 0.013228408 0.009607168 -0.023568146 0.03653386 0.011095849 -0.012416372 -0.056425933 0.009748324 0.005229545 -0.021279363 0.0024197656 0.033489127 0.027722932 0.032892797 -0.04855149 0.0039482354 0.028448356 -0.034683034 -0.04193266 0.022592736 -0.015982281 0.020826915 -0.013392182 -0.0430993 0.03199626 -0.048124265 -0.013393155 0.028168082 -0.033870563
⏰ 0.029746303 0.017993253 -0.053456765 -0.0063938177 0.042132422 0.0070629166 -0.035273567 -0.04197028 -0.020098861 -0.05031781 0.019341026 -0.0039657434 0.015523415 -0.03138659 -0.035526164 0.0063089747 -0.007030448 -0.021578752 0.016212681 -0.034859058 -0.059720185 0.004140262 0.019391555 -0.04684195 -0.028494885 0.02228293 0.0019971172 -0.049843732 0.008868326 0.007304304 -0.0042059612 -0.02086892 -0.04421177 -0.036620464 -0.047976207 -0.016085712 0.025727179 -0.019435959 0.014534666 -0.01794298 0.0055218865 0.017621344 0.008595643 0.018052159 0.031863336 0.021857262 -0.047183815 -0.051834323 0.015909962 0.03205668 0.004154563 -0.03547921 0.0071314904 -0.0026041614 0.017174669 -0.04375524 0.03631636 0.0024342479 -0.016605666 -0.006686383 0.025788885 0.0039086784 0.020423856 0.05495228 -0.024616448 -0.0060767466 0.002976554 0.016165467 -0.03153064 0.019140797 -0.007846657 -0.04002669 0.03780119 -0.008077576 -0.017915368 0.012208211 -0.024095522 -0.025156552 -0.006300923 0.019861976 0.016120762 -0.059137493 -0.02160443 0.006817498 0.02931572 -0.036617916 0.012163847 0.008082713 0.036745653 -0.033495832 -0.023134844 -0.011809847 -0.03252144 -0.02972574 0.030930841 0.024621118 -0.03849832 -0.019102218 0.01794569 -0.02457116
⏱ -0.0032157276 -0.039762516 -0.03830509 -0.01721702 0.018832002 -0.029945767 -0.029477773 0.026779557 -0.029636955 -0.022812484 0.041838113 -0.04686437 0.02483666 0.028562626 0.04587775 0.010432389 0.041765567 -0.052295823 0.020139085 0.006095052 -0.006129726 0.04471292 -0.0489764 0.011675092 0.04849116 0.0096326 -0.035075303 0.046597198 -0.010814564 0.03418636 0.019343896 0.049016915 -0.041527156 -0.013832568 0.028162448 0.03410334 -0.034475338 0.0029427672 -0.048221093 0.011869882 -0.020524573 -0.057395376 -0.038914263 0.029261626 -0.025474725 -0.009935663 0.04679559 -0.011499216 0.0091927005 -0.025222683 0.0129117435 -0.022446489 0.045627646 0.009359188 -0.016044173 -0.04016428 -0.020139616 0.035692554 -0.016030297 -0.02360341 -0.021872435 -0.035269402 -0.046482634 0.015167529 -0.04999123 0.012573081 -0.0115164835 -0.029192997 0.033659022 0.0028845728 -0.047116876 -0.01741676 -0.04232309 -0.026082065 -0.000506278 -0.037087798 0.03967963 0.010406964 0.0132989185 0.0017574333 -0.013001503 0.03889291 -0.002658954 -0.032618858 0.006638625 0.0016458182 0.02239992 0.048460707 0.04089189 0.01813285 0.020127883 -0.033333372 0.045035597 0.049533423 0.018777223 0.007553005 0.0045295693 -0.047208186 -0.02802761 -0.021266626
⏲ 0.010271468 -0.047822166 0.024118962 0.051269248 0.04161816 0.0075706313 0.04492929 0.004998759 0.023780506 -0.023123296 0.018955104 -0.037597008 0.035045613 -0.028468 -0.014312964 -0.020833693 0.02393023 -0.034945805 0.00045240627 0.016565911 -0.022960167 -0.031722978 -0.016126227 0.0417923 0.030974856 -0.056293108 0.0020618876 -0.009929838 -0.013214868 -0.010669902 0.0052518477 0.005447309 -0.022045836 0.016838403 0.0361074 0.0056848763 -0.045822274 0.03821255 -0.02656127 0.023684071 -0.0020885838 0.0017436721 -0.025462814 -0.005491847 0.057850897 0.03321074 0.04940883 -0.004306953 0.055929586 0.018299919 0.013531935 0.03706904 0.037644427 -0.050448176 0.031670015 0.0016207148 -0.02611356 -0.0412096 0.049792904 -0.050541017 -0.026783565 -0.019301632 -0.030236198 -0.0010624159 -0.020736763 0.008166977 -0.037890818 0.0030281658 -0.04271172 -0.055288676 -0.033644333 0.032425527 -0.02614627 0.042956416 -0.0026167845 -0.026479566 -0.015988015 0.03014512 -0.022711478 0.045116466 -0.04359297 -0.0066110534 -0.041271433 0.012273553 -0.013917972 0.035758734 -0.029664997 0.03918112 -0.022695797 0.03444604 -0.039737806 0.012378513 0.009025368 0.011421636 0.005884777 0.006983124 0.0013596741 -0.046978775 0.014274219 -0.02308639
⏳ 0.020476136 0.03754034 0.053770594 -0.013703722 0.045770604 -0.017898936 -0.014658905 0.056748 -0.029571988 -0.019234084 0.04962171 -0.045274045 -0.023371346 0.022059258 -0.04137511 -0.010686232 -0.025786066 -0.033646617 0.012217814 -0.024532225 -0.006492412 0.03076266 0.017102791 -0.037439607 0.022062518 -0.016940875 -0.022654193 0.010247322 0.017841363 -0.015693275 0.048931837 0.057065856 0.0026401465 -0.030773066 0.03609238 0.04263947 0.024153411 -0.00059436524 -0.045610934 -0.035092346 -0.023282439 -0.034031846 0.010686146 -0.03139518 0.006392853 0.017144527 0.053278334 0.041281346 -0.033048548 -0.03700534 0.005041345 0.026984856 -0.050530843 -0.046222508 0.02581214 0.04249878 0.0012681485 0.016452724 -0.035418637 0.027781826 -0.034673814 0.007880845 0.022759207 -0.03238397 0.0054268916 0.04854743 -0.031112637 -0.02097361 0.025254264 -0.009057416 0.034521908 0.025244145 -0.005589322 -0.023860537 -0.05647712 0.017288595 0.013228806 -0.001507687 -0.026956983 0.012056437 -0.00723924 0.034421 0.026772358 0.012540938 -0.046990808 -0.04383851 -0.00026260983 -0.030563135 0.004570335 -0.011570265 0.007441962 0.040926807 0.04308137 0.0011942934 -0.014265956 -0.026474368 0.03189766 0.018102685 0.026055316 -0.039190426
⏸ 0.031346306 -0.04443191 -0.006231449 0.018671438 -0.030203314 0.027897023 0.041454077 0.033777304 -0.026091482 -0.002178271 0.03759648 -0.050778363 0.012824247 -0.006041733 -0.044835757 0.017202033 -0.0035231118 0.030200703 -0.05120093 -0.00759177 0.038736876 0.0019512331 0.050241478 0.04493613 0.03801605 0.010199775 0.047602564 0.017330049 0.001451615 0.043252755 0.030311994 0.04255817 0.010763262 0.024702525 0.01110059 -0.04241771 -0.0144506665 0.027931448 -0.03404219 -0.022382487 0.04531421 -0.039150916 0.029124644 -0.011817659 0.00682701 0.0061129034 0.03734642 -0.030230833 0.038909614 -0.0070586624 -0.0051534874 0.054803543 -0.021473404 0.037850447 0.015888728 0.03920409 0.0029149805 0.044919074 -0.03779926 -0.028959822 -0.0039335354 0.04015848 0.001741114 -0.008630401 0.008047291 0.035944387 -0.03146795 -0.03472045 0.034537263 0.0005924539 -0.040164944 -0.047992356 -0.035322823 -0.043170597 -0.039805796 0.037123606 0.038281184 -0.014805794 -0.0012403539 -0.045975663 0.028239753 0.00847972 0.025837874 0.01888354 0.0034417526 -0.037424874 -0.016906118 -0.014688782 -0.037944935 0.023790013 -0.031822328 -0.007856333 -0.025659746 0.02203141 0.019605944 0.03692531 0.0013841677 0.0023493124 0.037006184 0.031701334
⏹ 0.0025618088 -0.04152459 -0.056095164 -0.019200746 0.015988931 -0.021558838 0.015891518 -0.045003437 0.0070391255 0.023486242 -0.05417177 -0.043190837 0.0016864528 -0.0067586415 -0.015246026 0.03886296 -0.00059723016 0.010902221 -0.03708469 -0.002861171 -0.039409447 0.01265021 0.015997957 0.04538115 -0.007241879 0.010272847 0.045024566 -0.028811282 0.04395201 -0.024076574 0.016623933 -0.02318795 -0.023355536 0.0043346225 -0.034819264 -0.00040010345 0.031507272 0.018375468 0.03578916 -0.042704508 -0.00821437 0.023608811 -0.020006442 0.030725373 -0.025753433 0.047191627 -0.0153648285 0.0026692713 -0.029114345 -0.037456613 0.007258737 -0.0010216068 0.018915921 -0.026146566 0.0272681 -0.0513479 0.020561235 -0.038716555 -0.0013808219 0.0036301562 0.039606847 -0.053097963 0.050882697 -0.038222577 -0.026026083 -0.0013328296 -0.03831623 0.004719955 0.038827065 0.009665344 -0.035040237 -0.019613452 -0.018127225 0.01667068 0.032156654 -0.046434037 -0.023738666 -0.018294241 0.041832812 0.014913773 -0.008379877 -0.008366844 -0.047318384 0.043983504 -0.049872026 0.0010002395 0.043264214 0.042795353 -0.037219234 0.001169417 0.0357215 0.055856667 -0.00072103075 0.05022721 -0.01618004 -0.022708895 0.0092641385 -1.1203668e-05 0.0038396097 -0.021964384
⏺ -0.015080048 0.0035624674 0.013489107 0.035231296 -0.029430302 0.0008415474 -0.047792505 -0.026586372 0.012924879 0.048384875 -0.023296757 -0.015599128 -0.034681935 -0.040970575 0.037288047 -0.01931911 0.04252641 0.03881357 0.0040619667 -0.047459483 -0.0009667487 0.004965964 0.03449956 -0.005129863 -0.03947544 -0.04800632 0.02617522 -0.008258757 0.007588062 0.043110333 0.050913207 -0.046547517 0.036104243 0.030189406 0.02289321 0.029572945 -0.03333951 0.0045779045 -0.0049217236 0.0038628038 0.015803248 0.019227507 -0.011456913 -0.020268634 0.00016610441 -0.038502306 -0.03361008 -0.049941167 0.010182956 -0.028647603 -0.02874061 0.015655193 0.039905086 0.011254905 -0.013385491 0.024910398 -0.024287963 -0.043891847 -0.018632287 0.007887813 0.015747331 0.0016989829 0.043879636 -0.033024754 0.015392368 -0.0056369016 -0.029315034 -0.01831987 -0.016810216 0.04490765 -0.04852881 0.014823255 -0.00080284284 0.021151373 -0.036179427 0.027837826 0.022522418 0.028166976 -0.05083963 -0.0109953 0.032737453 0.021777753 -0.020629112 -0.013160726 -0.024092186 -0.00861318 -0.0013860145 0.03601792 0.009213394 0.052499723 0.031113265 -0.005907506 0.051110364 -0.031197522 -0.017738327 -0.016085746 -0.004609974 0.038117725 -0.0023598426 0.005637386
Ⓜ️ -0.004831934 0.022348117 0.005206694 -0.0015451662 0.007096618 -0.030597286 0.007420784 0.017189173 0.04382325 0.014939822 0.007429388 -0.05815495 -0.03170007 0.04382416 -0.008203405 0.029078662 -0.03611866 -0.007931782 0.0024353438 -0.029828155 0.04786933 -0.023042463 0.01822923 0.018116409 0.010323951 -0.021758657 -0.022615213 -0.02692956 -0.032508463 0.0039616316 -0.00358426 0.03356046 0.011964843 -0.023736278 -0.042203736 0.033694163 0.05377102 0.036568597 -0.006017638 -0.0068923654 -0.046663187 0.04856268 -0.029812736 0.0011697349 -0.059638616 0.018790042 0.013979545 0.035973106 0.0319576 -0.0026205464 -0.04760284 0.012741439 0.020447964 -0.040996477 0.029355047 0.018924452 -0.0043707048 0.03380176 -0.0005299241 0.015476208 0.026190503 0.004667903 -0.045098443 0.055159695 0.011052286 0.044392593 -0.0055373125 -0.007112316 -0.021666454 -0.0429459 0.0009883575 0.05934741 0.0061089043 0.0021444743 0.033685036 0.012633054 0.046507664 -0.04169401 -0.021747727 0.0365534 -0.029245956 0.0007687719 0.025730994 -0.0024099736 0.0012569714 -0.032690052 -0.0031522973 -0.0240631 0.02779124 -0.05738223 -0.006088644 -0.02661202 0.005417292 0.048809126 0.007535316 -0.059589464 0.02626461 0.045169596 -0.0037333039 -0.0093288515
▪️ 0.01069494 0.0346692 0.02666028 -0.007928958 -0.010025858 -0.03332148 0.01696709 0.034124646 -0.048445564 0.012115443 -0.012966647 0.03467281 -0.037397396 -0.049209587 0.02030945 -0.022245165 0.038933147 0.012252703 -0.023849832 -0.056781877 -0.023721395 0.03739924 -0.041509476 -0.037996825 0.017598743 -0.0060543544 0.009358517 0.008363485 -0.031575385 0.038803186 -0.016629204 -0.008220151 0.04968568 0.02828569 0.03618092 -0.014728304 -0.025723573 0.03336883 0.0076254196 -0.019174494 0.012562591 -0.030998021 -0.01619976 -0.019361485 -0.012351226 0.0338806 0.013400024 0.044208787 0.012294553 -0.0031839395 0.03338692 0.015625004 0.022212563 -0.008520696 -0.013846743 0.0011576562 -0.016157214 0.0475922 -0.019501394 -0.0034783382 -0.04753566 0.047384366 -0.025492411 -0.048678484 0.01697501 0.0011143668 0.04347397 0.03789034 0.03628027 0.049819294 0.024784321 0.018382985 -0.013606628 -0.035438452 0.027520368 -0.0360618 0.029951116 0.0041476823 -0.022548383 -0.012636452 0.005597847 -0.01236454 0.010429098 -0.046279363 -0.009306618 0.015501639 -0.028384676 0.046936527 0.028176285 -0.027047912 -0.0034959968 0.040043328 0.014437389 -0.026314415 0.0039436165 -0.012009182 -0.04703917 0.0021495204 0.033356488 0.04597768
▫️ 0.009475081 -0.0037906985 -0.04579014 -0.021803522 -0.011824188 -0.003729706 -0.0262412 0.010773835 0.026401512 -0.018821245 -0.015128852 0.043327224 -0.0012726656 -0.005181979 0.03800949 -0.040952377 -0.030867334 -0.03229068 -0.011311737 -0.019598715 -0.038992185 -0.026675528 0.00830919 -0.023049857 0.024588235 -0.018027786 0.012697516 -0.008986232 0.0028034253 -0.003256828 -0.025386399 0.035157643 -0.04391466 0.03736374 -0.030315924 0.017111195 -0.033743393 -0.028614491 -0.007911604 -0.04940821 0.040170655 -0.023850907 -0.029469477 -0.007637381 -0.040707655 0.043277483 0.020538423 0.011783967 -0.010170195 0.018641345 -0.038724072 0.050340153 0.014412323 -0.033450957 -0.04136401 0.023443097 -0.029862715 0.013909711 0.04896217 -0.03275418 -0.023651326 -0.038417622 -0.033321008 -0.0058458704 -0.020670662 -0.0018897249 -0.0297821 -0.02246663 -0.04951067 -0.012672597 -0.03620843 -0.04134424 -0.038951047 -0.033733107 -0.031690404 -0.0068204068 -0.029513884 0.032166224 -0.0174451 -0.01676544 -0.038695227 0.022067033 -0.03990385 0.01172171 -0.01312982 0.019991742 -0.042987492 0.015605768 -0.035415888 -0.026293036 -0.00081846706 -0.026332727 -0.0342292 0.034125723 -0.03287974 0.024553787 -0.04633767 -0.031333897 0.045405664 0.023886425
▶️ -0.0459483 -0.029923782 0.03673667 -0.005264736 -0.042917028 -0.0110158 -0.017133435 0.009119393 -0.0005693896 -0.0066495663 0.035013992 0.04641574 -0.02143273 0.030119626 0.017324423 -0.047723442 -0.029008674 0.02069871 -0.025907924 -0.039473057 -0.017848385 0.028809065 0.02317284 0.0014625716 -0.024447834 0.018636346 -0.0062050773 0.0033303516 0.043343436 -0.0025294533 0.04459208 -0.032286156 -0.028637921 0.018033719 0.041621353 0.036158856 0.059338756 -0.027955288 -0.022490662 -0.011484719 0.027325502 0.041181292 0.022873394 -0.032453977 -0.008636126 0.0006712922 -0.007116194 -0.046534576 -0.0026692015 -0.043696724 -0.050070513 -0.037960906 0.018829508 0.04153743 -0.029320478 -0.0030869008 0.012718166 0.01297597 -0.016217886 0.018133689 0.06005207 -0.024495536 0.043454822 -0.0073868106 -0.02193936 0.045582186 0.029897371 -0.0072983084 -0.028695941 -0.025853416 -0.0018305589 0.014908653 0.0483541 0.020585706 -0.027273525 0.0133994 -0.04152939 -0.013700932 -0.015801275 0.034241945 -0.012416164 0.017098198 -0.041408353 0.0036367252 0.028944131 -0.04239466 -0.0021003478 0.0063902317 0.013794797 -0.01698923 -0.051411282 0.018001746 -9.088891e-05 0.023803515 0.05384954 -0.022696506 0.047060627 -0.027451145 -0.042330176 0.012057369
◀️ 0.00092323497 -0.04507028 -0.034447793 -0.006312731 -0.031566992 -0.009536076 -0.053759087 -0.032876544 -0.032349356 0.02177209 -0.023709605 0.0013967315 0.008441433 0.035423607 0.023087407 0.01412778 0.03962577 0.019273441 0.04072333 -0.049348116 0.043256823 -0.026651794 0.020672834 -0.042717237 -0.017530672 -0.0402514 0.03580473 0.0058663236 0.046125237 -0.0030078518 -0.041945726 0.016321518 -0.04573882 -0.009446311 0.0119405445 0.031066526 -0.0025729781 0.007822286 -0.010657594 0.042388678 -0.045990996 0.03248363 -0.0011754493 -0.030570773 -0.029105293 0.029900348 -0.05206747 -0.0051743696 -0.022193678 -0.021375634 -0.040841613 0.008881711 0.040755637 -0.0061710384 -0.045195255 0.03694535 -0.029826736 -0.012591405 0.006148397 -0.039860945 -0.0016915748 0.017868556 0.034522202 -0.0061865184 -0.03264776 0.028813003 0.0003758072 -0.019762043 0.029251387 -0.00042930729 -0.035891112 -0.03161989 -0.025049312 0.0446341 -0.052547444 -0.023601564 0.022704694 0.008188894 0.025209205 0.04817837 0.010828386 0.0015392419 0.011005934 -0.050055318 -0.04835878 0.019933669 0.029536437 0.05047735 0.03340093 -0.009056373 -0.008863215 0.0066989646 -0.04516152 0.044786267 0.03092901 -0.017046414 -0.03187881 -0.025582738 0.026076186 0.042091556
◻️ 0.0050267163 0.044376686 0.04507569 -0.044900883 -0.018318301 0.007838438 -0.03929197 0.052947763 -0.032084446 -0.029274996 0.041028194 0.0067764274 -0.0058559505 -0.0062532797 -0.03124831 0.037340563 0.00859482 -0.047830444 -0.023788756 0.0037827163 0.049428996 0.031855218 -0.024285087 0.04101509 -0.027479557 -0.04143234 -0.015241123 0.0048963428 -0.015286883 0.045060404 -0.012396999 -0.05552161 -0.014298361 -0.035660606 0.023144739 -0.02342621 0.006966306 0.0363378 -0.004149704 -0.024686642 -0.029318905 -0.0013966655 0.0463976 -0.025608463 0.045159083 -0.043531712 0.0051731537 -0.02242577 0.016927162 -0.0032878637 0.009835947 0.0014500605 0.03468892 0.044864852 -0.029962918 0.009903177 -0.020877056 -0.0023298338 0.008763752 0.019821577 0.0164715 -0.013628885 -0.022611653 -0.042461812 -0.025537001 -0.052294698 0.024609199 -0.017025305 -0.05023158 -0.03625764 -0.02757423 -0.027947256 -0.0012788357 0.0015736431 -0.0011527846 0.0019648392 0.05377117 -0.023477418 0.02630025 0.03623389 0.00901016 -0.050521117 -0.0038429047 -0.03970051 0.024402946 0.012948714 -0.010241181 -0.04581584 -0.016368216 0.009682342 0.026539063 0.008458558 -0.02638053 0.0020649913 -0.02286445 0.048598815 -0.019667417 0.032374624 -0.005545025 0.04673878
◼️ 0.03306965 0.022521388 -0.014951279 0.034905754 -0.03803212 -0.04126071 0.04869462 0.012063303 -0.029399186 0.009700174 0.034558415 0.018710732 0.0135693215 -0.0333858 0.021296965 -0.010241836 -0.032518458 0.005086481 0.03437879 -0.026898503 -0.023584967 -0.016184328 0.0011015438 -0.039395206 0.011239248 0.012135359 -0.042387966 -0.002871816 -0.03338764 0.02501151 0.00482294 -0.02925762 -0.01589336 0.035159916 0.046955913 -0.034736857 -0.014875653 -0.00647926 0.020970289 -0.004193614 -0.0009518633 0.021925604 -0.025918022 -0.0056765545 0.04170773 0.036318563 0.01781426 0.01743885 0.03182985 0.037642214 0.045222547 -0.008203796 0.040072333 -0.03941505 -0.047006536 -0.013716529 -0.0044410485 -0.010249573 0.046336208 0.005846361 -0.049996532 0.0010761294 0.03549076 0.039293222 -0.02297932 0.043658134 0.047421597 0.010470686 -0.022021988 -0.00551133 -0.0053629624 -0.017676124 0.01420492 -0.030293236 -0.05346789 -0.026938662 0.008002232 0.03141425 -0.023571532 -0.001174875 -0.0046632155 -0.011656326 -0.0352586 0.029296555 0.046130586 0.046278972 -0.009683453 -0.039297536 0.0009522311 0.013251956 0.030897612 0.037254214 0.0017424638 0.0039609955 0.005155761 0.022345195 -0.00039846537 0.046189338 0.00981258 0.009789149
◽ -0.015279156 -0.0066821547 -0.0063566132 0.017433563 0.0025928596 0.015106417 -0.011852556 0.02141024 0.013342677 0.015093152 -0.035651233 0.009181013 -0.020097103 -0.024548681 -0.026165606 0.016571932 -0.04833082 0.04234957 -0.028526803 -0.03799256 0.0061014774 -0.041731864 0.00882095 0.012816392 -0.039660066 0.048638802 0.012339257 -0.01780741 -0.023119042 -0.05204779 0.055815205 0.001159207 -0.00067780685 0.025452234 -0.019647006 -0.012206849 -0.01292608 0.016855914 0.0050623706 -0.008772598 0.03257692 -0.02578911 -0.040580485 0.04436489 0.0015869023 0.027295938 0.008536866 -0.030688483 0.050700646 0.007173909 0.011002353 -0.017051233 -0.02586017 -0.04499229 -0.024058005 -0.00656973 0.016934427 -0.028885221 -0.020226285 -0.047906842 0.035722587 -0.032159843 0.039205387 0.014497269 -0.046019845 0.04156382 -0.047865435 0.019667298 0.0059867897 -0.016843108 0.042153314 -0.016756093 0.023144828 0.024561524 0.0075668762 0.03063277 0.03047038 0.031158172 -0.005480887 -0.05036779 -0.013265221 -0.04396363 0.040770262 0.0095706545 -0.03235459 0.045509756 -0.014362538 0.022659812 -0.01403639 0.023100274 -0.03832235 -0.022298459 -0.002858154 -0.015912881 0.009023712 0.055522453 -0.02580864 0.04608445 -0.035483956 -0.022761732
◽️ -0.003238504 0.021881705 0.019129999 -0.0198789 -0.0035426253 0.0046962206 -0.026212096 -0.0023276987 0.051083274 0.032243747 -0.010132197 -0.037247147 0.04533813 -0.01534132 0.025972247 -0.053827018 -0.014042357 -0.0018770606 -0.04410792 -0.049180258 -0.01236977 0.042658277 -0.029518418 -0.013225201 0.015761396 0.043432195 -0.029268386 -0.04379952 -0.031555798 0.036405325 -0.020782024 0.027255842 -0.012831759 0.0032163095 0.025456628 0.014220724 0.014884967 0.029394414 0.020197168 0.021062361 -0.027233228 0.018315217 -0.025535194 -0.03248363 -0.0514655 -0.011225307 -0.0369745 -0.011344568 -0.037787754 -0.025968688 -0.015625434 -0.0052755196 0.04033253 0.018499311 0.041984882 0.042073082 -0.030669978 -0.04486132 -0.025295224 -0.010374458 -0.022297373 -0.0075713154 -0.018177193 0.029800711 0.015183581 0.016685164 -0.018129196 0.0021060163 0.007853663 0.044604033 0.026809104 0.0022280435 -0.03620663 0.010046053 -0.025088694 -0.022690719 -0.04116836 0.03791748 0.026363282 0.0044707176 -0.0032178422 0.012940157 0.014860741 0.027976839 0.022434283 -0.032208912 0.007228793 0.012592133 0.0183591 0.010031963 -0.03481716 0.023969853 -0.012180871 -0.024309726 -0.04030861 -0.017046181 0.004124084 -0.044906054 0.019987494 0.052840568
◾ -0.028732555 -0.02517031 0.036822233 -0.0028393965 0.037350215 0.01863654 0.01962384 0.0016141998 0.028878793 0.046266757 0.001988249 -0.04303225 0.029588649 0.040940553 -0.008992979 -0.05310512 0.0404576 0.04201884 0.013605387 0.0006731294 0.04445761 0.01978714 0.00140316 0.0013342155 -0.032505836 -0.01504125 0.014638661 0.0055398257 0.0031995787 -0.048550162 -0.020620346 0.007867007 0.040090896 -0.04373281 -0.0052822344 0.0069657196 0.053111143 0.048351772 0.017726114 0.03472526 -0.020724704 0.016245889 -0.040595967 -0.036637068 0.026412554 -0.012689913 0.03533593 0.015288617 0.014338474 0.001708336 -0.031129869 0.024736624 -0.032984935 -0.025538431 -0.020304281 -0.031145226 -0.03094739 0.009023774 0.034505606 0.002552195 0.044539094 -0.022635138 -0.008501964 0.0030681794 -0.013951409 0.032193374 0.044907197 0.0015419183 -0.022562748 0.030021166 0.0029876465 -0.046361275 0.010876039 -0.028171735 -0.030553877 -0.013435623 -0.008921236 0.036045484 0.020854859 0.020962449 0.025319222 0.036740236 -0.04036065 0.035636872 0.034783784 -0.037714712 -0.03913378 -0.0046169255 0.020268068 0.040370885 -0.026895612 -0.008716146 0.033911627 -0.027977506 -0.049390774 -0.0010843569 -0.053457636 -0.04796402 0.008397103 0.0005466053
◾️ -0.037682466 0.00094215205 -0.00075072283 0.045266766 -0.042057514 0.012682548 0.050056808 -0.04685687 -0.015160979 0.054502673 0.023615623 -0.026087912 -0.030545602 0.011317498 -0.024353003 -0.038471933 -0.0010317492 -0.021800462 -0.0061794613 -0.029204689 0.033951275 0.013823238 -0.04716996 0.0040703537 0.0033644612 0.0018482109 0.004083092 0.060218707 0.027113128 0.023991756 -0.029498613 -0.007308926 0.035580732 -0.025438147 0.021803627 -0.048726536 -0.038317453 0.002630413 0.025638318 -0.01212998 -0.051020466 0.0034485382 -0.00037094657 -0.035729647 0.016788334 -0.02363161 -0.012107837 -0.029124355 -0.010238347 0.017143676 -0.0032361504 -0.037251223 0.051335026 0.034188353 0.010597151 0.037537143 0.02991619 0.039082777 -0.02926429 -0.012093037 -0.04182066 0.009920991 0.027187536 -0.0039040921 0.012176702 -0.015057289 -0.022225054 -0.010888035 0.021188356 0.011688735 -0.039189685 0.041776452 -0.05203055 0.03629356 0.0110565955 0.005510647 -0.0044066194 -0.03899017 -0.007924642 0.01044675 -0.01869106 0.0010713708 0.034798373 -0.031300653 -0.032312624 0.0023627277 -0.04920456 -0.041425485 0.009954415 0.040511016 -0.036390234 -0.020216454 0.057136517 -0.021912806 0.03030906 0.025025485 0.031744994 -0.0439005 0.033505384 0.05231473
☀️ -0.013613009 -0.047502704 -0.021477366 -0.010170713 -0.014596078 -0.0016342051 -0.018863242 0.008926414 -0.0055184155 -0.06906374 -0.022089059 -0.019601824 0.03030271 -0.016017089 -0.04526393 -0.0040629515 -0.047417607 0.00705382 -0.009558722 0.022892578 -0.023049213 -0.05002766 0.038923096 -0.026545104 -0.028919607 0.052155755 -0.022431344 -0.018039659 0.020137014 0.039999563 0.027929965 0.05309045 0.032412317 0.048704702 0.009320301 -0.027813043 -0.04170896 0.013534293 -0.05078488 -0.024624068 -0.042138513 0.044279877 0.01011659 -0.022182334 0.014978161 -0.058518503 -0.009934333 0.0451248 -0.04408086 0.0007871635 0.011719276 0.05302118 -0.0039667045 -0.033073213 -0.016452923 0.0140193505 0.046183087 -0.011605146 -0.010740429 -0.00050460093 0.0058334596 0.008826879 -0.053235006 0.04174749 0.025087383 -0.05213936 -0.046608202 0.0014811284 0.0030116446 0.036981683 0.03742565 -0.0127179595 0.042434603 0.006759978 0.04016943 0.0056041493 -0.041078787 -0.013256013 0.00962436 -0.03258277 0.006069149 -0.0025175842 0.048232533 -0.006027957 -0.038360048 -0.02263016 0.00017206129 -0.021846997 0.013183253 0.06822367 -0.005289786 0.0033988135 0.003675108 -0.04432318 0.040185552 0.012581146 0.041138303 0.0117339 0.005362519 -0.0068412954
☁️ -0.016643977 0.036811676 0.033430383 0.03733363 0.04025271 0.0066799778 -0.056706097 -0.017218752 -0.012393291 0.043009125 0.029176774 0.010627941 -0.044274222 0.035422653 0.05034876 0.03518953 -0.048279554 -0.040125936 -0.0064415084 0.015172207 0.00024456292 -0.016525978 0.028858576 0.0441146 -0.015423199 -0.0091082025 -0.043999482 0.011763456 -0.014040239 0.011760464 0.02557332 -0.026463669 -0.025999527 0.021701511 0.042162597 0.03663646 0.049740154 -0.029060462 -0.030806564 -0.05068331 -0.048708975 0.052376073 -0.049112715 -0.025466101 -0.044923764 -0.0059614345 -0.0039977077 -0.024949402 -0.03482844 0.008939441 0.01601819 -0.053007502 -0.032728925 0.009749697 0.025826972 0.005673743 0.039354414 -0.028264381 -0.005850805 -0.016887216 0.022302637 -0.04135234 0.017624684 0.021234145 -0.043386627 -0.019759214 -0.03869513 -0.026895812 0.032809276 -0.01191532 0.03248598 0.006641028 0.030710958 -0.017203068 -0.033987656 -0.04166824 -0.043174908 0.04727055 -0.03538069 -0.006356867 0.04626454 -0.000232585 0.03781492 -0.047504026 0.02287186 0.033685617 0.049519215 -0.031398665 -0.029386364 0.012292776 0.04584879 0.0067141154 -0.022817811 -0.008189839 -0.00090980064 -0.0017687549 -0.008960822 0.019229667 -0.020441556 -0.008516868
☂ -0.009689616 0.009969751 0.018907797 0.032873865 0.04101112 0.030066911 0.029112786 -0.0066717044 -0.05150938 -0.031009788 0.053487506 0.019315865 -0.028851988 -0.03667875 0.02411651 0.045370255 0.014177364 0.0060371934 0.012137026 -0.007414227 0.017790105 0.032366097 -0.036262836 -0.0036710463 0.048666056 0.03643109 -0.021142185 -0.027255941 0.012191488 0.010952626 0.0120435385 0.02101346 -0.047884215 0.018702636 -0.029741779 -0.016585976 -0.040399525 0.041386306 0.024969194 -0.026110888 -0.005922227 0.014050711 0.005336305 0.050964 -0.03795216 0.035884097 0.0035188368 -0.045103822 -0.004054766 -0.030272512 0.040388357 0.04098072 -0.0030526142 0.006370542 -0.0054210154 -0.00024269849 -0.040673368 0.043437585 0.00062759477 0.031268742 -0.02430322 0.048272446 0.002971964 -0.039232157 0.042104397 -0.028384801 -0.02551088 -0.010551597 -0.024559662 0.011883091 -0.050685644 -0.029638208 -0.03361476 0.014536282 0.050129663 0.00915405 0.012984403 -0.033616982 -0.020511393 -0.013070171 -0.026113935 0.008713916 -0.041227415 -0.025943952 -0.049136866 -0.034972597 0.030687034 0.05236213 0.003419251 0.03776493 -0.0067873346 0.041326147 0.024686927 -0.036135767 -0.03313297 -0.0022600575 0.043202255 -0.040474974 -0.002357609 -0.043382946
☃ -0.046031024 -0.02449429 -0.033978682 -0.00118008 0.029056327 0.021342207 -0.026028352 -0.04386583 -0.04311946 0.059252843 -0.017343186 -0.042995412 0.00935525 -0.0015645964 0.04633288 -0.0027854817 0.028483653 -0.002921935 0.04353208 -0.033020776 0.051400732 0.05047387 0.051147103 0.01881511 0.028561052 -0.013426717 -0.0009184144 -0.0022490416 -0.0635669 0.03864268 0.036578894 -0.034199055 0.017277654 0.02193314 0.027080785 -0.023572246 -0.0011599982 -0.022286054 0.015946943 -0.007644072 0.00076633116 -0.058732107 0.041438315 0.049114175 0.023660507 -0.048057135 -0.017085077 -0.02016398 0.011865224 -0.03353967 -0.06282492 0.0042557465 -0.0010688504 0.021713793 0.013344899 -0.042207338 0.04622447 -0.029889317 0.04315624 0.020636082 0.014575214 -0.048057657 -0.025064267 0.04048059 -0.03439162 0.034934998 0.020213792 -0.006016568 0.029029438 -0.0055211433 -0.019640047 -0.027305052 -0.0068267537 0.019191034 0.031852573 -0.009540112 -0.04868213 0.018589713 0.040185038 0.021916222 -0.035694424 0.025626257 -0.015669161 0.041019384 -0.045514397 -0.029574223 -0.0026880703 -0.048931703 0.013624291 0.035405282 0.008469717 -0.054257955 0.05464846 -0.013066658 0.042177014 -0.027395401 0.025691133 0.026763598 0.011383262 -0.026383795
☄ -0.008825533 -0.03450601 -0.052927054 -0.024071224 -0.009351441 0.04543107 0.037676074 -0.024267755 0.042489674 0.006435264 -0.016458282 -0.005493764 -0.028655848 -0.008521785 -0.016722849 0.018990755 -0.044040143 0.021240503 -0.0047126687 0.046891272 -0.021092447 0.017925452 0.0009178334 0.04954644 0.0040643816 -0.0020107857 0.0001144033 -0.045786377 0.0508867 0.040846087 0.05298505 0.029557955 0.011833918 -0.0022910393 -0.042066075 -0.017440211 0.026233237 0.014269502 0.008305277 -0.026280671 0.0131808445 0.020371448 -0.05017663 0.027682386 0.003984522 -0.027442284 0.027435604 0.053475983 -0.045084275 -0.020286148 0.054375064 -0.032188352 -0.006672609 -0.02995389 0.041773684 -0.0054152617 0.006699045 0.018967442 -0.03151891 -0.025293041 -0.039105438 -0.045648456 0.0070874277 -0.010649575 -0.048818663 -0.03641627 -0.040563654 0.032432083 -0.036494754 -0.013856907 -0.016355336 -0.005666019 0.059015602 -0.010055211 0.020736523 -0.051627 -0.040640973 -0.027919412 0.028047951 0.003130431 -0.027400408 0.027785864 0.034435377 -0.059640415 0.038122106 0.027359229 0.05379044 0.025552925 0.0011729263 0.020677261 0.013091964 -0.043023303 -0.030602368 -0.042886436 -0.032722138 0.031695485 -0.02149213 0.02147729 -0.031061476 -0.034018416
☎️ -0.021970209 -0.0107898535 -0.02896431 -0.001201823 0.0068087596 -0.0417041 0.03395974 0.028381191 0.028407274 -0.02033104 0.02023181 0.04628678 0.013055112 -0.0014266324 -0.0118821245 0.023284536 0.009424015 -0.0010528726 -0.011481591 0.042948265 -0.054646835 0.017662957 -0.02103317 -0.03649881 -0.03790184 0.032073382 -0.008063756 0.021744177 -0.038837206 0.03138244 -0.018959088 0.041091632 0.022352282 0.0528549 -0.02000247 -0.023335459 -0.066570655 0.02395569 0.043915883 -0.03599086 -0.01932622 -0.00087132276 0.023588583 -0.03779833 -0.026441947 0.03997625 0.047831234 0.027441936 -0.018044198 -0.002479592 -0.031539097 -0.015315729 -0.012318842 -0.01849912 0.003247607 0.026854495 0.048071217 0.0031407217 -0.03584104 -0.05211566 -0.04757816 0.0504492 0.01020703 0.012705417 -0.029718665 0.0061433925 0.018807605 0.015681662 -0.015879469 -0.051085107 0.03819948 -0.0065220078 0.0505315 -0.0013088193 0.033850174 0.051187243 0.020324063 0.014339976 -0.05630492 -0.037850846 -0.009292381 0.03379463 -0.0059411526 -0.02933843 0.043944225 0.036781732 0.005567592 0.008515392 -0.03883645 -0.012902272 0.025050031 0.041041218 0.038045105 -0.030529136 0.012201955 -0.046664305 0.010928313 -0.0019826517 0.036707003 0.033518557
☑️ 0.015869955 0.041205354 0.04143806 -0.05057122 -0.023856873 0.033751655 0.0042853095 0.029813012 -0.047691148 -0.018185038 -0.010606477 -0.022112709 -0.008284889 -0.030909786 0.028760051 0.023195801 0.033536483 -0.0020508429 0.029733198 0.011555782 -0.03535212 0.012135926 0.022657903 -0.036743324 0.0071506 -0.020629833 -0.04409953 0.03733605 0.029986952 0.04675338 0.0029955097 0.011960092 -0.023470866 0.005088906 0.015755607 -0.017929401 -0.044201594 0.041658506 -0.0034015172 -0.042962078 -0.032056555 0.0034731736 0.022769388 -0.039243627 0.027027205 -0.01727084 0.026805136 -0.040892072 0.023770366 -0.037237942 0.032176465 -0.044016913 0.038077388 -0.0059308684 -0.03972565 -0.03270805 0.029430848 -0.007548523 0.016414324 0.019812789 0.022081774 -0.029990368 0.019361693 0.0101662725 0.041989803 -0.01756526 0.0127843125 -0.02529422 0.03575875 -0.0016621744 -0.05115677 0.034614865 -0.018041812 -0.020409232 0.015712762 0.041477904 0.05171367 -0.037055947 0.035540923 -0.033973746 -0.007874905 -0.049716126 -0.019747473 0.042565472 0.013840161 0.010449419 -0.04101027 -0.045981117 0.004387746 -0.03747312 0.035694182 -0.0132241715 -0.0376177 0.0028563708 0.0118283145 0.034395285 -0.040300325 -0.043630164 -0.023408394 -0.021027448
☔ 0.019069858 -0.012603743 -0.013398615 6.8107904e-05 -0.036176685 -0.0551599 0.019971963 -0.00914211 -0.048350386 -0.014094087 -0.025212912 0.0019117276 0.02573363 -0.033673447 0.021917224 -0.0050844206 -0.019077508 0.0070149847 -0.014802821 0.013538041 -0.0056850477 0.055636242 0.02495017 0.03088616 -0.03708636 -0.006636574 0.034605116 0.028552601 0.023238514 -0.004023749 -0.052077565 -0.029339377 0.02520411 0.049518608 -0.052075945 -0.029168397 0.039761942 -0.053996447 -0.027152993 0.022155501 -0.0033193703 -0.042492103 -0.029209308 -0.040059023 0.028728535 0.010939256 0.03167556 -0.0166199 0.015017235 0.04509897 -0.028022632 0.0014794389 -0.029686457 -0.006013539 0.021032006 0.018584065 -0.04471154 -0.01654826 0.01661201 0.04141671 -0.04393217 0.057075635 -0.004962408 -0.0059539876 0.024902444 0.014873978 -0.04154984 -0.051729776 -0.035521075 0.016450688 -0.04298143 0.016632942 0.03206877 -0.022121597 -0.04408296 0.019087946 0.015491135 -0.0084784515 -0.020215105 -0.049243174 -0.040110145 -0.0018134422 0.004937075 0.011384661 -0.043014836 -0.038305264 -0.018085193 0.0147694675 -0.03129987 0.04781394 -0.02134556 0.005188757 0.031165162 0.010755669 -0.026196927 0.03368709 0.024747433 0.023076655 0.003523158 -0.031247439
☔️ -0.03056753 0.02304262 -0.0064321514 0.035858314 -0.03897108 -0.052161317 -0.02803878 0.03821909 -0.0031636094 0.042373348 0.043725822 -0.033421252 0.022132345 -0.005495656 -0.006437175 0.045505077 -0.021787863 0.018576836 0.024850987 -0.024827298 0.015782768 -0.03729122 -0.026012776 0.02942973 -0.03419264 -0.008888805 -0.022107892 0.021210022 0.03664669 0.017903961 0.042006273 -0.026551908 0.040424056 0.031824917 0.007808795 0.004795218 0.042668637 -0.04320045 -0.0020622904 0.012121711 -0.01978589 -0.047037344 -0.015854843 -0.012692528 -0.012957024 -0.02714947 0.008750109 0.02913805 -0.0107722655 0.0400773 -0.04506379 -0.043027297 0.0061690677 -0.010851225 0.025469188 -0.014322075 0.041564904 -0.0024303587 0.025103927 0.03264803 0.051436402 -0.019100836 0.010960501 0.04664543 -0.014792997 -0.001650766 0.027431846 0.02690691 0.016283099 0.0031717296 0.021646926 0.046642844 0.05148751 -0.031357802 0.029753169 -0.008169527 -0.013802446 -0.03331913 -0.02871916 -0.0024063508 0.00077687216 0.002342148 0.010851629 0.049589958 -0.016421098 -0.028925037 -0.009826472 -0.0352305 0.011626711 0.0002481177 0.018010892 -0.041604143 -0.034606855 0.025222195 -0.02753039 -0.012151772 -0.047997158 0.014886949 -0.03728663 0.02297991
☕ -0.053224366 0.04426026 0.02045312 0.024408244 -0.002389344 0.000556628 0.056128193 0.008178459 0.012967158 0.0033835648 0.012346601 -0.0017593633 -0.0056373714 -0.0028674544 -0.004109551 0.04859595 -0.002010992 -0.021220095 0.0011103593 -0.024011452 -0.025978735 0.055216786 -0.04400808 -0.03659082 0.037037607 0.037005987 -0.0077175116 0.005314607 -0.028167883 -0.037561305 0.026127126 0.028304648 0.042530585 -0.010837744 -0.009897621 0.048307113 -0.017775042 -0.021935126 0.0002210634 -0.021874923 0.058908492 -0.0040330747 0.050630763 -0.04739572 -0.0068461597 -0.003917857 0.028878441 -0.027372422 -0.033751402 -0.002123694 0.007963529 -0.0039043587 0.0017052041 -0.0057940204 -0.019127758 0.023452137 -0.012530871 0.02500323 -0.022180855 0.00493627 0.021633528 0.027595228 0.032322273 0.040971477 -0.001052379 -0.023316754 0.015110171 0.017538497 0.01779545 0.0529422 0.018568149 -0.0014795284 0.046842173 0.0318834 0.005530522 0.038285498 -0.008018821 0.0046666153 -0.04177965 0.024912141 -0.0068283207 0.02350101 0.0023271174 -0.0012965412 -0.013733446 0.028939169 -0.048123147 -0.004711594 -0.011049617 -0.0079147015 0.010953715 0.04184884 -0.023987444 0.046912402 0.028929152 -0.013086405 -0.011423883 -0.026211997 -0.009398743 -0.01921873
☕️ -0.02568942 0.028800506 0.024685677 0.032876246 -0.04917823 0.030101947 0.044025537 0.0007985615 0.038879212 -0.019680243 0.015067302 -0.008717386 -0.0417209 0.010297031 0.024126057 0.018435515 -0.035893004 0.026462685 0.05426423 0.012792408 0.025773171 -0.020797363 -0.04266383 -0.027407248 0.016941058 0.009694962 -0.020643 0.04866606 -0.049019694 -0.048163585 -0.00028087504 0.019329775 0.012685903 0.03578515 -0.011541519 0.017428523 0.010992122 0.031042295 0.012686794 0.047522653 0.02834589 0.016959788 -0.04023186 -0.028378762 -0.0432114 -0.008390101 0.0069109052 -0.011482191 -0.009787212 -0.036337107 -0.039506465 -0.024461564 -0.02148881 -0.017797355 0.0039862273 -0.043993637 0.016229864 0.056003526 -0.018249907 -0.008512306 0.035094142 0.0065523298 0.02595167 0.04632092 0.009093337 0.030690752 -0.044766773 0.026421832 -0.01323924 -0.0005805655 0.01720914 -0.037228465 -0.017476648 -0.014043315 -0.0473446 -0.027012989 -0.0035706854 -0.03472774 0.016563972 -0.03444897 -0.034237247 -0.038005535 -0.003658159 0.040321883 0.032867048 -0.030717537 -0.04105658 0.03926262 0.023315173 -0.053746823 0.012933466 -0.01121722 -0.02590477 0.0043216352 -0.031035827 -0.033250757 0.014443575 -0.018504418 -0.023864646 0.019850137
☘ 0.028795978 -0.0019467035 0.0035377522 0.049940597 0.020986767 -0.0052945283 0.040444322 -0.005213222 0.0060851993 -0.038927544 -0.044399597 0.016547099 0.03290873 -0.01752585 0.03654828 -0.053334568 0.035584446 0.025961133 0.0294943 0.014857711 -0.032044448 -0.010238138 0.020879542 -0.0390227 0.004548641 -0.0047689406 0.010773675 0.029622767 -0.047315452 -0.014331868 0.036235984 0.012057726 -0.007124937 0.010915399 0.016229467 -0.02271445 -0.011983913 0.013678385 -0.017731588 -0.009494796 -0.0029016347 0.027911706 -0.013173177 -0.03619149 -0.0039252355 0.023178497 -0.016433423 -0.027476247 -0.023003 0.021481678 0.023398766 0.039722815 0.04172155 0.047862176 -0.025783885 0.04322887 -0.015997518 0.0031352355 -0.033741936 -0.021518458 -0.048312727 0.01248481 -0.02654083 0.016039787 -0.011494816 -0.015114132 -0.02345844 -0.015678838 0.0289475 -0.046956774 -0.009703725 0.029832844 0.029861366 0.03763267 0.024724634 -0.05375229 -0.0018447385 -0.005750944 0.011071877 0.020703541 -0.04039381 0.0331699 -0.04671125 0.021785393 0.019020446 -0.041419107 -0.010526281 0.014875405 0.008465218 -0.0317724 -0.018911185 0.014154588 -0.02815246 -0.050995488 0.020835716 0.037791092 0.017900826 -0.032300845 0.039424572 -0.009011872
☝️ 0.024015954 0.0006580667 0.0031749734 -0.01849844 -0.0045833965 -0.009772826 0.03310876 0.03565534 0.017791593 -0.02898682 0.022395378 0.034256015 -0.021801865 -0.04716398 -0.02788655 -0.0063524568 -0.024720753 -0.03521672 -0.043246258 -0.05474985 0.037988417 -0.022726636 -0.030648593 -0.034944054 -0.03688418 0.025028437 0.049164347 0.043680992 -0.0033503363 -0.014863507 0.018924754 0.023594422 0.03117243 0.0020052313 -0.021717422 -0.028581467 0.006287863 0.019047335 0.051759418 0.030550329 0.035962492 0.028940862 0.0241305 -0.0057886303 0.017265446 -0.016704308 0.051509157 -0.046780482 -0.05224902 0.031460397 0.016199509 0.021576652 0.039791744 -0.005508592 0.04301643 0.037654877 -0.052555792 0.0054835784 0.030401776 -0.00027755494 -0.015592494 0.011724694 0.0003913898 0.026236195 0.009581968 0.0007837112 -0.039818026 0.03983942 -0.04841618 -0.05311451 -0.023724696 -0.021378053 0.0130514 -0.038852625 0.020488096 -0.017446987 0.04395261 -0.0048893164 -0.05248489 -0.041567687 -0.0060911607 0.00435916 0.020097207 0.018517962 0.031436995 0.016440265 -0.011726664 0.027794573 0.021119455 -0.0019556887 0.04039719 0.036672093 -0.0053275265 -0.021169491 0.016456537 -0.039086245 -0.015960557 0.025521815 -0.0027608974 -0.029498762
☠ 0.012429299 -0.007688144 -0.013625066 0.012357022 0.038049042 -0.04404932 0.02393375 -0.020002466 -0.030459097 -0.029858707 0.034488242 0.028993925 0.045129724 -0.038532145 0.037668332 0.02813726 -0.0053878925 0.043713786 0.042636767 -0.002105148 0.026544433 0.0043343445 0.007841956 -0.04186169 0.026614921 -0.019019997 0.01570883 -0.013636936 -0.0023888142 0.052045748 -0.0077207237 0.04410201 0.010443071 -0.0015372974 -0.016839901 -0.0409906 0.031230595 -0.034742337 0.0148090515 -0.030179996 0.038409363 -0.019121202 -0.04282506 -0.0049793315 0.02633943 0.041958094 0.012544338 0.01046402 -0.015333959 -0.011423765 0.030863708 -0.034443595 -0.038202625 0.014378337 -0.00069361046 0.00046025318 0.048498362 -0.02776231 0.03194123 0.0074262535 -0.0074955 -0.017169857 0.019810854 0.009220689 0.041713268 0.029107504 0.013882823 0.049055353 -0.03896532 0.01943481 0.0426539 -0.053392664 0.04663513 -0.012634328 -0.014971131 0.030666666 0.041446436 -0.022811655 -0.030710367 -0.0029548602 -0.032482173 -0.026040474 -0.03120098 -0.014253145 0.045457467 -0.03621135 -0.00011093582 -0.0013874784 -0.03908697 -0.037459284 -0.022199975 -0.017691303 -0.04991348 0.044898685 0.010220976 0.048106663 0.013936541 0.0029852444 0.031752758 0.037412394
☢ 0.005817399 0.03832374 -0.024544073 -0.004995552 0.042776864 0.03373352 0.003986416 -0.02032523 0.010497251 -0.0354719 -0.01742105 0.009788358 0.051174678 -0.02325499 0.037181713 -0.019586945 0.046864487 -0.011595156 0.020605823 -0.01830784 -0.04176738 -0.0024101858 -0.025236895 -0.04239205 -0.011884145 -0.041626606 0.037316356 -0.03473686 0.04629688 0.002619689 0.036005255 0.040767666 0.003738525 -0.014231873 -0.030544205 0.030624691 0.0056265537 -0.031466264 -0.049492545 -0.015923582 -0.05615143 0.03644115 -0.0038943791 0.033715907 0.038131244 0.011594007 0.05724013 0.029638989 -0.0442566 0.04663971 -0.0015623098 -0.010641476 -0.05378247 0.002099022 -0.017131016 -0.007714825 -0.0091730645 0.038321577 -0.03274171 0.032493796 0.044049036 0.035059378 -0.010461963 0.0486384 0.026813485 0.013047766 -0.026838591 -0.004156409 0.031447094 0.0074961544 0.01564874 -0.015287641 0.005890469 -0.022059992 -0.05330399 0.031185547 -0.0064892336 -0.016588848 -0.038462445 0.023626095 -0.025520965 -0.03055113 -0.046026558 -0.04199143 -0.043712202 0.006851875 0.020193806 -0.023251347 -0.04079458 -0.044509046 -0.0044346806 0.03444974 0.016535182 0.015685886 0.00752615 -0.020378616 -0.0395417 0.042002648 -0.015555395 -0.02315092
☣ 0.04637803 -0.004335929 0.020478498 -0.033560004 0.0066014137 0.0138467625 -0.025624342 0.037769802 -0.041013043 0.01573446 0.016268464 0.033612672 0.016648963 0.008481191 -0.023588121 0.00046318382 -0.034924585 0.03984823 0.0025197642 -0.03809626 0.003101449 -0.022063058 0.03119381 -0.034332912 -0.045556713 0.041056994 -0.021809304 -0.020591922 0.033164367 0.045775108 -0.00086811505 0.017785119 -0.019047946 0.04828493 -0.008263299 -0.03404104 0.014920243 -0.037621018 0.009885531 0.033949956 -0.028985087 -0.04114116 -0.012932891 0.028409649 -0.016148118 0.033296216 0.047068555 -0.026512712 0.026063744 0.030159174 0.0023284545 0.0046421657 0.027000057 -0.011161439 -0.0079587465 0.041652493 0.04244365 -0.025985025 0.031608667 -0.03260873 -0.009925802 -0.043805134 0.03494996 -0.026224555 0.029640721 -0.023696855 0.035226878 0.04722735 0.024812013 -0.016850423 0.022241639 0.013622313 -0.054859012 0.039664198 -0.0007858195 -0.027947214 0.027977409 0.034720827 -0.039125185 0.04767346 -0.015017649 -0.022193896 0.005600071 0.043087926 -0.026135314 0.0382926 -0.00014240606 -0.021941207 -0.004850012 0.041798487 -0.03779439 0.021155236 0.048340145 0.0012956576 0.03632428 0.041140966 -0.046725024 -0.050680436 0.029424092 -0.023287296
☦ -0.0031700344 0.015207713 -0.04147432 0.020163467 -0.048541415 -0.04301225 0.030105751 -0.050739165 0.0031145294 0.008658853 0.021895694 0.012375747 -0.002583212 0.013002101 -0.023652652 -0.037194956 -0.015750803 -0.03755269 -0.047413185 0.009052469 -0.048243094 0.03839516 -0.025719149 -0.04566578 0.009995745 0.009417174 -0.0060900906 0.046997286 0.049055766 0.029713614 0.00971715 -0.04764238 0.0019689589 0.015431906 -0.016580243 0.027293231 0.041135613 0.040352803 -0.03076397 -0.016552825 0.028038975 -0.0057816557 0.04084318 0.037257805 0.022652468 0.028689548 0.011394057 0.0011456655 -0.008235654 0.051393155 0.030760322 -0.008980868 -0.01123138 0.024673667 -0.001782348 0.037072405 -0.013769693 0.01985692 -0.02318247 -0.015488664 -0.030143697 0.02547072 -0.03290194 -0.016137347 -0.011723358 -0.0058722007 0.055744845 -0.019541103 0.006435363 0.038717862 -0.037539076 -0.0022104504 -0.0067475424 0.020027393 0.028253522 -0.031221703 -0.009947076 0.0067466972 -0.0012790598 -0.029669318 -0.0414107 0.017539356 -0.011945137 0.019604059 0.036442257 -0.00022409778 -0.007920954 0.03069719 0.013748306 0.0035157423 0.056773804 0.014447285 0.02432295 0.007528895 -0.00026046042 -0.031773362 0.033763785 0.0432286 0.043242127 0.019852253
☪ 0.0030509522 0.019322408 0.033084575 0.01675287 0.013800464 0.044683635 -0.013593051 -0.014351145 -0.029703913 -0.021521237 0.006246903 -0.018671073 -0.012054236 0.03532594 -0.02588624 -0.0021586185 -0.021806888 -0.014314288 0.009385677 0.001503819 -0.010956352 0.044709526 0.012141988 0.02597264 -0.0048422962 0.026531657 0.040950213 -0.0068341885 -0.037712436 -8.711518e-05 -0.025226342 -0.012361913 -0.0033006652 0.048079066 -0.030025987 0.017782377 0.026202388 -0.020759428 -0.0074024647 -0.03519884 -0.010790281 -0.017613797 -0.009020612 -0.017151712 -0.04528475 0.06129572 0.048485614 0.04943056 -0.043762524 -0.014854092 -0.054796007 0.03735149 -0.0029590453 -0.04682716 -0.051282085 -0.026186788 -0.032202605 -0.042329542 -0.021779846 0.031924527 0.030817011 -0.049245723 -0.039577026 -0.04411937 0.031517144 -0.045404658 -0.039967384 0.053723 0.017730527 -0.027127638 0.04570379 0.013834708 -0.051277637 0.028963104 -0.05892356 0.040802937 0.034602754 -0.024668943 0.020105803 -0.0034287905 -0.014982682 -0.039290953 0.020354897 0.03798454 -0.0076037017 -0.046421282 -0.01872437 0.0023393147 0.01581739 -0.02779597 0.045369957 0.011202165 0.059538785 -0.040459376 0.043058194 -0.035722945 -0.04680597 0.021775916 0.007993533 0.029961595
☮ -0.015951084 0.044242784 0.0011764526 0.040626634 0.01888215 -0.032359406 -0.036058612 -0.03718606 0.0023272473 0.0021164077 -0.047702692 0.0046740677 0.015563205 -0.0059053125 0.029803524 -0.008823712 0.05196792 -0.016159683 -0.029316248 -0.04019121 0.004789637 0.034463238 0.027569208 0.03168263 -0.041278217 0.024648454 0.0033779505 -0.012901175 0.029231615 0.018089546 0.022951744 -0.04057847 -0.007909924 -0.015440621 0.0025286814 0.03714298 -0.024556687 -0.045482807 -0.022915188 0.024510428 -0.009441939 -0.030460639 -0.046849005 -0.036058664 -0.01856921 0.029726872 0.04496811 -0.011501796 -0.035154846 0.03870102 0.014614411 0.037062302 0.017059667 0.022471178 0.010763802 0.040314738 0.011576554 -0.0072872904 -0.013152513 0.02288805 0.02311985 0.0465522 -0.044235103 0.044010352 -0.024112137 -0.0017497628 0.019745752 0.023089698 0.03673972 -0.009084262 -0.0014769464 0.005941583 0.020018073 0.041951854 -0.04453328 -0.02468604 0.043729194 -0.025067309 0.032293726 0.02900384 0.042836506 0.039506905 0.020749345 -0.0028366575 0.019118236 0.042344924 -0.033372484 0.0052472963 0.009031667 -0.015028279 -0.008713369 0.02082267 0.016118975 0.03373396 0.009234143 0.039507933 0.033358645 -0.004643477 -0.001311675 0.025390105
